{"learner":{"attributes":{},"feature_names":["Fwd Header Length","Bwd Header Length","Fwd PSH Flags","ACK Flag Count","Init_Win_bytes_forward","Flow Duration","Flow Packets/s","Flow Bytes/s","Fwd Packet Length Max","Flow IAT Mean","Fwd IAT Max","Bwd IAT Min"],"feature_types":["float","float","float","float","float","float","float","float","float","float","float","float"],"gradient_booster":{"model":{"cats":{"enc":[],"feature_segments":[],"sorted_idx":[]},"gbtree_model_param":{"num_parallel_tree":"1","num_trees":"100"},"iteration_indptr":[0,1,2,3,4,5,6,7,8,9,10,11,12,13,14,15,16,17,18,19,20,21,22,23,24,25,26,27,28,29,30,31,32,33,34,35,36,37,38,39,40,41,42,43,44,45,46,47,48,49,50,51,52,53,54,55,56,57,58,59,60,61,62,63,64,65,66,67,68,69,70,71,72,73,74,75,76,77,78,79,80,81,82,83,84,85,86,87,88,89,90,91,92,93,94,95,96,97,98,99,100],"tree_info":[0,0,0,0,0,0,0,0,0,0,0,0,0,0,0,0,0,0,0,0,0,0,0,0,0,0,0,0,0,0,0,0,0,0,0,0,0,0,0,0,0,0,0,0,0,0,0,0,0,0,0,0,0,0,0,0,0,0,0,0,0,0,0,0,0,0,0,0,0,0,0,0,0,0,0,0,0,0,0,0,0,0,0,0,0,0,0,0,0,0,0,0,0,0,0,0,0,0,0,0],"trees":[{"base_weights":[1.2776836E-7,-2.0871491E0,7.403129E-1,-2.5502279E0,1.0336684E0,1.2337675E0,-1.2521429E0,-2.6518323E0,1.1230018E0,1.4328554E0,-3.040256E0,-2.733564E0,1.3059177E0,-2.2446327E0,1.039754E0,-3.031308E0,-2.206322E0,1.4852226E0,-3.0393028E-1,1.468513E0,-2.8152316E0,-3.0448073E-1,-6.0850465E-1,-3.0494437E-1,1.468064E0,-1.6948042E0,1.3386002E0,-2.7428207E0,4.4859603E-1,1.3010167E0,-2.9773672E0,-3.0483625E0,-1.6100742E0,-3.049864E-1,-1.5090253E0,-4.0694512E-2,1.4867462E-1,1.4817584E0,-6.3825E-2,-2.2152383E0,-3.0218208E-1,-1.9461027E-1,9.493288E-2,1.4843366E-1,-1.8504278E-1,9.5456547E-1,-3.0433183E0,1.3550721E0,-3.0141919E0,-5.8947247E-2,-2.821802E0,1.4515983E0,-2.907014E0,1.408622E0,-2.2195365E0,1.2262065E0,-3.0428344E-1,-3.0493516E-1,1.3947365E-1,-3.0334753E-1,1.18582025E-1,5.105873E-2,-2.4845372E-1,1.485902E-1,-9.509406E-3,-2.9845512E-1,1.204043E-1,-2.9574248E-1,4.4271212E-2,-3.0287355E-1,1.4809076E-1,-1.6088502E-1,-3.048707E-1,1.383682E-1,-9.105979E-2,1.0090657E-1,-3.041941E-1,1.4830606E-1,-3.033542E-1,-2.8550395E-1,1.4200954E-3,1.4773081E-1,-2.4911685E-1,-3.0469784E-1,-4.8101485E-2,-3.01159E-1,1.4236003E-1,-2.9950497E-1,2.8236156E-2,1.4250289E-1,-1.5988915E-1],"categories":[],"categories_nodes":[],"categories_segments":[],"categories_sizes":[],"default_left":[0,0,0,0,0,0,0,0,0,0,0,0,0,0,0,0,0,0,0,0,0,0,0,0,0,0,0,0,0,0,0,0,0,0,0,0,0,0,0,0,0,0,0,0,0,0,0,0,0,0,0,0,0,0,0,0,0,0,0,0,0,0,0,0,0,0,0,0,0,0,0,0,0,0,0,0,0,0,0,0,0,0,0,0,0,0,0,0,0,0,0],"id":0,"left_children":[1,3,5,7,9,11,13,15,17,19,21,23,25,27,29,31,33,35,-1,37,39,-1,41,-1,43,45,47,49,51,53,55,57,59,-1,61,-1,-1,63,65,67,-1,-1,-1,-1,-1,69,71,73,75,77,79,81,83,85,87,89,-1,-1,-1,-1,-1,-1,-1,-1,-1,-1,-1,-1,-1,-1,-1,-1,-1,-1,-1,-1,-1,-1,-1,-1,-1,-1,-1,-1,-1,-1,-1,-1,-1,-1,-1],"loss_changes":[8.9738375E5,2.1976388E5,4.2150594E5,4.9422938E4,3.1958889E4,9.836075E4,1.9357838E5,2.1777125E4,5.379145E3,2.715004E3,1.755664E1,8.150465E3,3.3098875E4,7.967953E4,2.699406E4,1.681625E3,3.485975E4,1.0061523E1,0E0,3.603164E2,1.1813232E1,0E0,1.1278454E1,0E0,2.5958252E1,1.2994974E4,2.3940188E4,1.0622875E4,3.1207258E4,9.150715E3,4.3598438E2,3.06375E2,3.2954824E3,0E0,6.393557E4,0E0,0E0,1.1511328E2,5.703763E2,8.414102E1,0E0,0E0,0E0,0E0,0E0,2.5777607E3,1.3724609E1,2.15595E4,1.4361328E2,6.580371E3,4.588875E3,7.2725977E2,7.230625E2,1.5556172E3,1.3911296E3,1.620853E1,0E0,0E0,0E0,0E0,0E0,0E0,0E0,0E0,0E0,0E0,0E0,0E0,0E0,0E0,0E0,0E0,0E0,0E0,0E0,0E0,0E0,0E0,0E0,0E0,0E0,0E0,0E0,0E0,0E0,0E0,0E0,0E0,0E0,0E0,0E0],"parents":[2147483647,0,0,1,1,2,2,3,3,4,4,5,5,6,6,7,7,8,8,9,9,10,10,11,11,12,12,13,13,14,14,15,15,16,16,17,17,19,19,20,20,22,22,24,24,25,25,26,26,27,27,28,28,29,29,30,30,31,31,32,32,34,34,37,37,38,38,39,39,45,45,46,46,47,47,48,48,49,49,50,50,51,51,52,52,53,53,54,54,55,55],"right_children":[2,4,6,8,10,12,14,16,18,20,22,24,26,28,30,32,34,36,-1,38,40,-1,42,-1,44,46,48,50,52,54,56,58,60,-1,62,-1,-1,64,66,68,-1,-1,-1,-1,-1,70,72,74,76,78,80,82,84,86,88,90,-1,-1,-1,-1,-1,-1,-1,-1,-1,-1,-1,-1,-1,-1,-1,-1,-1,-1,-1,-1,-1,-1,-1,-1,-1,-1,-1,-1,-1,-1,-1,-1,-1,-1,-1],"split_conditions":[7.37E2,6.4E1,3.26E2,3.2738E4,8E0,0E0,6.5285956E5,2.6883E4,3.3304E4,3.62E2,6.5535E4,4.072E3,2.6635086E-2,2.92E4,2.72E2,1E0,3E0,4E0,-3.0393028E-1,8E0,5.3475938E3,-3.0448073E-1,8E0,-3.0494437E-1,8E0,2.052E3,2.72E2,2.37E2,4.25E2,6.37564E2,1.6E1,7.25E2,3.2E1,-3.049864E-1,4E0,-4.0694512E-2,1.4867462E-1,2.78E2,2.51E2,1E0,-3.0218208E-1,-1.9461027E-1,9.493288E-2,1.4843366E-1,-1.8504278E-1,6.37E7,2.238E3,1.9822E4,1.9304447E-1,4.25E2,5.5555555E4,3.32E2,3.038095E5,2.1040762E-2,1.6403E4,5.24E2,-3.0428344E-1,-3.0493516E-1,1.3947365E-1,-3.0334753E-1,1.18582025E-1,5.105873E-2,-2.4845372E-1,1.485902E-1,-9.509406E-3,-2.9845512E-1,1.204043E-1,-2.9574248E-1,4.4271212E-2,-3.0287355E-1,1.4809076E-1,-1.6088502E-1,-3.048707E-1,1.383682E-1,-9.105979E-2,1.0090657E-1,-3.041941E-1,1.4830606E-1,-3.033542E-1,-2.8550395E-1,1.4200954E-3,1.4773081E-1,-2.4911685E-1,-3.0469784E-1,-4.8101485E-2,-3.01159E-1,1.4236003E-1,-2.9950497E-1,2.8236156E-2,1.4250289E-1,-1.5988915E-1],"split_indices":[5,0,8,4,8,4,9,4,4,4,4,0,6,4,1,2,5,10,0,1,6,0,1,0,1,4,1,4,8,8,4,8,1,0,5,0,0,4,4,5,0,0,0,0,0,10,4,11,6,8,7,0,9,6,4,1,0,0,0,0,0,0,0,0,0,0,0,0,0,0,0,0,0,0,0,0,0,0,0,0,0,0,0,0,0,0,0,0,0,0,0],"split_type":[0,0,0,0,0,0,0,0,0,0,0,0,0,0,0,0,0,0,0,0,0,0,0,0,0,0,0,0,0,0,0,0,0,0,0,0,0,0,0,0,0,0,0,0,0,0,0,0,0,0,0,0,0,0,0,0,0,0,0,0,0,0,0,0,0,0,0,0,0,0,0,0,0,0,0,0,0,0,0,0,0,0,0,0,0,0,0,0,0,0,0],"sum_hessian":[5.8077506E5,1.5206352E5,4.2871153E5,1.324154E5,1.964812E4,3.4361234E5,8.509917E4,1.2885155E5,3.563851E3,1.7895283E4,1.7528364E3,6.1366904E3,3.3747566E5,5.938356E4,2.5715613E4,6.95795E4,5.927205E4,3.2791309E3,2.847202E2,1.7746973E4,1.4831015E2,1.7493105E3,3.525947E0,5.707847E3,4.2884332E2,3.635472E3,3.338402E5,5.0113625E4,9.269936E3,2.4145906E4,1.5697075E3,6.875332E4,8.2617346E2,2.6821658E4,3.2450393E4,2.4240887E0,3.2767068E3,1.7594916E4,1.5205647E2,4.0989136E1,1.07321014E2,1.7629735E0,1.7629735E0,4.2730072E2,1.5426018E0,1.2263685E3,2.4091033E3,3.325823E5,1.2578816E3,1.4326364E3,4.868099E4,7.137178E3,2.1327573E3,2.343036E4,7.155469E2,2.3800142E1,1.5459075E3,6.8738336E4,1.4985275E1,5.4740326E2,2.787702E2,1.0569247E4,2.1881146E4,1.754886E4,4.6057682E1,4.561694E1,1.0643953E2,3.1953896E1,9.035239E0,1.4258049E2,1.083788E3,1.0137098E1,2.3989663E3,3.2843538E5,4.1469546E3,8.374125E0,1.2495074E3,9.43852E2,4.8878442E2,4.811706E4,5.6393115E2,7.091561E3,4.561694E1,2.0161807E3,1.1657662E2,7.8452324E1,2.3351906E4,5.4608105E2,1.6946584E2,2.2698284E1,1.1018585E0],"tree_param":{"num_deleted":"0","num_feature":"12","num_nodes":"91","size_leaf_vector":"1"}},{"base_weights":[6.5290052E-3,-1.7642074E0,6.9198596E-1,-2.1276805E0,9.7440463E-1,1.1674429E0,-1.0825828E0,-2.2061079E0,1.0611165E0,1.3747544E0,-2.4304261E0,-2.2706187E0,1.2382089E0,-1.8884453E0,9.794043E-1,-2.497003E0,-1.8571664E0,1.4177737E0,-2.5046125E-1,1.4024448E0,-2.287636E0,-7.227643E-1,-2.5040274E0,-2.5107655E-1,1.4004842E0,-9.4741374E-1,1.2784635E0,-2.23775E0,6.692411E-1,1.2341632E0,-2.4564865E0,-2.5098667E0,-1.3795379E0,-2.511021E-1,-1.2942679E0,-3.742961E-2,1.4193153E-1,1.414484E0,3.949692E-2,-2.4765073E-1,-5.731941E-1,-2.47534E0,1.3361017E-1,-2.5073877E-1,-5.6096697E-1,1.4170137E-1,-1.6762295E-1,4.8793787E-1,-2.5511994E0,1.3074478E0,-1.2281588E0,-3.9360788E-2,-2.2952409E0,1.3550378E0,-2.5473673E0,1.3405002E0,-1.8689361E0,1.1590173E0,-2.505919E-1,-2.5106153E-1,1.3307405E-1,-2.4993025E-1,1.1179813E-1,4.684127E-2,-2.0726235E-1,1.4186172E-1,-7.90356E-3,-2.4691628E-1,1.2582482E-1,-1.9961652E-1,9.912376E-2,-2.529853E-1,-1.5103489E-2,-1.7507732E-1,9.095347E-2,-1.2239497E-1,1.4541067E-1,-2.5103197E-1,-3.3166513E-1,1.3237795E-1,-2.483596E-1,-2.619481E-1,1.4744072E-1,1.4156215E-1,-2.508796E-1,-2.360786E-1,-6.2487897E-2,-3.0132383E-1,1.409223E-1,7.468423E-2,-2.553068E-1,-2.4877189E-1,1.3553534E-1,-2.4697307E-1,2.5694406E-2,1.3598235E-1,-1.4738356E-1],"categories":[],"categories_nodes":[],"categories_segments":[],"categories_sizes":[],"default_left":[0,0,0,0,0,0,0,0,0,0,0,0,0,0,0,0,0,0,0,0,0,0,0,0,0,0,0,0,0,0,0,0,0,0,0,0,0,0,0,0,0,0,0,0,0,0,0,0,0,0,0,0,0,0,0,0,0,0,0,0,0,0,0,0,0,0,0,0,0,0,0,0,0,0,0,0,0,0,0,0,0,0,0,0,0,0,0,0,0,0,0,0,0,0,0,0,0],"id":1,"left_children":[1,3,5,7,9,11,13,15,17,19,21,23,25,27,29,31,33,35,-1,37,39,41,43,-1,45,47,49,51,53,55,57,59,61,-1,63,-1,-1,65,67,-1,69,71,-1,-1,73,-1,-1,75,77,79,81,83,85,87,89,91,93,95,-1,-1,-1,-1,-1,-1,-1,-1,-1,-1,-1,-1,-1,-1,-1,-1,-1,-1,-1,-1,-1,-1,-1,-1,-1,-1,-1,-1,-1,-1,-1,-1,-1,-1,-1,-1,-1,-1,-1],"loss_changes":[6.999918E5,1.6020828E5,3.50797E5,3.5536625E4,2.5710027E4,7.978275E4,1.4599195E5,1.40718125E4,4.3419287E3,1.7145723E3,2.4761523E2,5.8341406E3,2.82695E4,5.6438E4,2.161337E4,1.0835938E3,2.3203219E4,9.101074E0,0E0,2.7477734E2,3.9707947E1,3.0426016E2,1.1012695E1,0E0,2.3059143E1,1.3378635E4,2.2922719E4,7.0244375E3,1.674929E4,7.586914E3,3.0754297E2,2.1828125E2,2.4159453E3,0E0,4.649042E4,0E0,0E0,1.0259766E2,4.5463434E2,0E0,3.293287E1,5.37088E0,0E0,0E0,9.591744E0,0E0,0E0,5.075305E3,7.75625E1,1.9313062E4,1.3566076E4,5.096438E3,5.9285E3,1.4854434E3,2.6966797E1,1.2670469E3,9.7383057E2,1.4520596E1,0E0,0E0,0E0,0E0,0E0,0E0,0E0,0E0,0E0,0E0,0E0,0E0,0E0,0E0,0E0,0E0,0E0,0E0,0E0,0E0,0E0,0E0,0E0,0E0,0E0,0E0,0E0,0E0,0E0,0E0,0E0,0E0,0E0,0E0,0E0,0E0,0E0,0E0,0E0],"parents":[2147483647,0,0,1,1,2,2,3,3,4,4,5,5,6,6,7,7,8,8,9,9,10,10,11,11,12,12,13,13,14,14,15,15,16,16,17,17,19,19,20,20,21,21,22,22,24,24,25,25,26,26,27,27,28,28,29,29,30,30,31,31,32,32,34,34,37,37,38,38,40,40,41,41,44,44,47,47,48,48,49,49,50,50,51,51,52,52,53,53,54,54,55,55,56,56,57,57],"right_children":[2,4,6,8,10,12,14,16,18,20,22,24,26,28,30,32,34,36,-1,38,40,42,44,-1,46,48,50,52,54,56,58,60,62,-1,64,-1,-1,66,68,-1,70,72,-1,-1,74,-1,-1,76,78,80,82,84,86,88,90,92,94,96,-1,-1,-1,-1,-1,-1,-1,-1,-1,-1,-1,-1,-1,-1,-1,-1,-1,-1,-1,-1,-1,-1,-1,-1,-1,-1,-1,-1,-1,-1,-1,-1,-1,-1,-1,-1,-1,-1,-1],"split_conditions":[7.37E2,6.4E1,3.26E2,3.2738E4,9.781729E-2,0E0,6.5285956E5,2.6883E4,3.3304E4,3.62E2,8E0,4.072E3,4.488421E-2,5.5555555E4,2.72E2,1E0,3E0,4E0,-2.5046125E-1,8E0,4.06E2,1.8181819E5,6.5535E4,-2.5107655E-1,8E0,2.238E3,2.5743E4,2.26E2,4.25E2,6.37564E2,1.6E1,7.25E2,3.2E1,-2.511021E-1,4E0,-3.742961E-2,1.4193153E-1,2.78E2,2.51E2,-2.4765073E-1,4.81E2,1.46E2,1.3361017E-1,-2.5073877E-1,8E0,1.4170137E-1,-1.6762295E-1,6.37E7,2.6635086E-2,2.72E2,2.3E2,4.25E2,2.92E4,2.6883E4,4.1861145E1,2.1040762E-2,1.6403E4,5.24E2,-2.505919E-1,-2.5106153E-1,1.3307405E-1,-2.4993025E-1,1.1179813E-1,4.684127E-2,-2.0726235E-1,1.4186172E-1,-7.90356E-3,-2.4691628E-1,1.2582482E-1,-1.9961652E-1,9.912376E-2,-2.529853E-1,-1.5103489E-2,-1.7507732E-1,9.095347E-2,-1.2239497E-1,1.4541067E-1,-2.5103197E-1,-3.3166513E-1,1.3237795E-1,-2.483596E-1,-2.619481E-1,1.4744072E-1,1.4156215E-1,-2.508796E-1,-2.360786E-1,-6.2487897E-2,-3.0132383E-1,1.409223E-1,7.468423E-2,-2.553068E-1,-2.4877189E-1,1.3553534E-1,-2.4697307E-1,2.5694406E-2,1.3598235E-1,-1.4738356E-1],"split_indices":[5,0,8,4,7,4,9,4,4,4,8,0,6,7,1,2,5,10,0,1,9,6,4,0,1,4,11,4,8,8,4,8,1,0,5,0,0,4,4,0,5,5,0,0,1,0,0,10,6,1,8,8,4,4,6,6,4,1,0,0,0,0,0,0,0,0,0,0,0,0,0,0,0,0,0,0,0,0,0,0,0,0,0,0,0,0,0,0,0,0,0,0,0,0,0,0,0],"split_type":[0,0,0,0,0,0,0,0,0,0,0,0,0,0,0,0,0,0,0,0,0,0,0,0,0,0,0,0,0,0,0,0,0,0,0,0,0,0,0,0,0,0,0,0,0,0,0,0,0,0,0,0,0,0,0,0,0,0,0,0,0,0,0,0,0,0,0,0,0,0,0,0,0,0,0,0,0,0,0,0,0,0,0,0,0,0,0,0,0,0,0,0,0,0,0,0,0],"sum_hessian":[5.767098E5,1.6094362E5,4.157662E5,1.4208597E5,1.8857666E4,3.2791016E5,8.785603E4,1.3867561E5,3.4103643E3,1.6874152E4,1.983515E3,6.612655E3,3.212975E5,6.3168645E4,2.4687383E4,7.562477E4,6.305083E4,3.1008123E3,3.0955215E2,1.674814E4,1.2601143E2,8.24053E1,1.9011097E3,6.206941E3,4.057138E2,5.8102124E3,3.154873E5,5.55784E4,7.5902485E3,2.2983854E4,1.7035295E3,7.47629E4,8.618771E2,2.9167191E4,3.3883633E4,2.4573867E0,3.0983547E3,1.6601459E4,1.4668195E2,1.1310656E2,1.2904867E1,4.4404457E1,3.800084E1,1.8975377E3,3.5720735E0,4.0408237E2,1.6314585E0,3.066479E3,2.7437332E3,3.1188147E5,3.605837E3,1.4164531E3,5.4161945E4,6.2568384E3,1.33341E3,2.2222889E4,7.609661E2,2.2674313E1,1.6808552E3,7.474867E4,1.42226715E1,5.9507434E2,2.6680273E2,1.0379162E4,2.3504473E4,1.6555693E4,4.576561E1,4.7625122E1,9.905682E1,6.6134534E0,6.2914133E0,4.330048E1,1.1039801E0,1.8691326E0,1.7029407E0,1.1062047E3,1.9602744E3,2.6086924E3,1.3504071E2,3.105443E5,1.3371555E3,2.380401E3,1.225436E3,8.9157007E2,5.248831E2,5.211648E4,2.0454626E3,7.599104E1,6.1808477E3,2.078872E0,1.3313312E3,8.524618E1,2.2137643E4,5.93169E2,1.6779713E2,2.1516758E1,1.1575531E0],"tree_param":{"num_deleted":"0","num_feature":"12","num_nodes":"97","size_leaf_vector":"1"}},{"base_weights":[1.0195008E-2,-1.5503223E0,6.523309E-1,-1.8536912E0,9.266971E-1,1.1114458E0,-9.6467006E-1,-1.9184302E0,1.011141E0,1.3191819E0,-2.1092339E0,-1.9780667E0,1.180646E0,-1.6517599E0,9.297592E-1,-2.1639469E0,-1.6216531E0,1.3620591E0,-2.170786E-1,1.3517687E0,-1.5227647E0,-6.4975923E-1,-2.169683E0,-2.1752961E-1,1.3445499E0,-8.4126914E-1,1.2203342E0,-1.9409654E0,6.321986E-1,1.1780653E0,-2.1306734E0,-2.1745036E0,-1.2238522E0,-2.175483E-1,-1.1377174E0,-3.4460142E-2,1.3636343E-1,1.3628944E0,1.1354E-1,-2.7126658E-1,-1.9907645E0,-2.1421213E0,1.2795156E-1,-2.1724215E-1,-5.2008283E-1,1.3613772E-1,-1.5343961E-1,4.581465E-1,-2.1955066E0,1.2624432E0,-4.449015E-1,-2.1898785E0,-1.5767109E0,1.2981049E0,-2.1994104E0,1.2829626E0,-1.634856E0,1.1016399E0,-2.1711433E-1,-2.1751182E-1,1.2763892E-1,-2.1656254E-1,1.05728425E-1,-1.7465957E-2,-2.3020051E-1,-3.0613098E-1,1.3643722E-1,-2.1447885E-1,1.3553263E-1,-7.1104304E-3,-2.3437946E-1,-6.544187E-2,-2.1645354E-1,-2.1871193E-1,-1.4273151E-2,-1.5946849E-1,8.731283E-2,-1.04527056E-1,1.3921134E-1,-8.288578E-2,-2.2016394E-1,1.2755743E-1,-3.5154045E-1,-1.2259219E-1,1.2756579E-1,-2.2059874E-1,-1.5515351E-1,-2.0608544E-1,3.8675133E-2,-2.4886744E-1,1.3523005E-1,7.068374E-2,-2.2041905E-1,-1.13964565E-2,1.3267383E-1,-2.1395238E-1,2.3367157E-2,1.3049106E-1,-1.3671754E-1],"categories":[],"categories_nodes":[],"categories_segments":[],"categories_sizes":[],"default_left":[0,0,0,0,0,0,0,0,0,0,0,0,0,0,0,0,0,0,0,0,0,0,0,0,0,0,0,0,0,0,0,0,0,0,0,0,0,0,0,0,0,0,0,0,0,0,0,0,0,0,0,0,0,0,0,0,0,0,0,0,0,0,0,0,0,0,0,0,0,0,0,0,0,0,0,0,0,0,0,0,0,0,0,0,0,0,0,0,0,0,0,0,0,0,0,0,0,0,0],"id":2,"left_children":[1,3,5,7,9,11,13,15,17,19,21,23,25,27,29,31,33,35,-1,37,39,41,43,-1,45,47,49,51,53,55,57,59,61,-1,63,-1,-1,65,67,69,71,73,-1,-1,75,-1,-1,77,79,81,83,85,87,89,91,93,95,97,-1,-1,-1,-1,-1,-1,-1,-1,-1,-1,-1,-1,-1,-1,-1,-1,-1,-1,-1,-1,-1,-1,-1,-1,-1,-1,-1,-1,-1,-1,-1,-1,-1,-1,-1,-1,-1,-1,-1,-1,-1],"loss_changes":[5.649304E5,1.2350559E5,2.9652075E5,2.715825E4,2.1371414E4,6.6511E4,1.1497199E5,1.04295625E4,3.6166494E3,1.472793E3,1.7975E2,4.469287E3,2.4417719E4,4.281608E4,1.7867988E4,7.7496875E2,1.7373078E4,8.307617E0,0E0,2.1615234E2,1.05180695E2,2.4198158E2,7.7753906E0,0E0,2.0619934E1,1.0309744E4,2.0925781E4,5.2130156E3,1.3741069E4,6.418615E3,2.3322705E2,1.67125E2,1.8765172E3,0E0,3.8795918E4,0E0,0E0,1.0592383E2,3.980854E2,2.0693945E1,2.9054443E1,3.9366608E0,0E0,0E0,8.252333E0,0E0,0E0,4.2004404E3,2.2219727E1,1.8264719E4,9.892772E3,3.4798438E2,2.2205945E4,1.2140664E3,2.0834473E1,1.282168E3,7.381199E2,1.3067501E1,0E0,0E0,0E0,0E0,0E0,0E0,0E0,0E0,0E0,0E0,0E0,0E0,0E0,0E0,0E0,0E0,0E0,0E0,0E0,0E0,0E0,0E0,0E0,0E0,0E0,0E0,0E0,0E0,0E0,0E0,0E0,0E0,0E0,0E0,0E0,0E0,0E0,0E0,0E0,0E0,0E0],"parents":[2147483647,0,0,1,1,2,2,3,3,4,4,5,5,6,6,7,7,8,8,9,9,10,10,11,11,12,12,13,13,14,14,15,15,16,16,17,17,19,19,20,20,21,21,22,22,24,24,25,25,26,26,27,27,28,28,29,29,30,30,31,31,32,32,34,34,37,37,38,38,39,39,40,40,41,41,44,44,47,47,48,48,49,49,50,50,51,51,52,52,53,53,54,54,55,55,56,56,57,57],"right_children":[2,4,6,8,10,12,14,16,18,20,22,24,26,28,30,32,34,36,-1,38,40,42,44,-1,46,48,50,52,54,56,58,60,62,-1,64,-1,-1,66,68,70,72,74,-1,-1,76,-1,-1,78,80,82,84,86,88,90,92,94,96,98,-1,-1,-1,-1,-1,-1,-1,-1,-1,-1,-1,-1,-1,-1,-1,-1,-1,-1,-1,-1,-1,-1,-1,-1,-1,-1,-1,-1,-1,-1,-1,-1,-1,-1,-1,-1,-1,-1,-1,-1,-1],"split_conditions":[7.37E2,6.4E1,3.26E2,3.2738E4,9.781729E-2,0E0,6.5285956E5,2.6883E4,3.3304E4,2.78E2,8E0,4.072E3,4.488421E-2,5.5555555E4,2.72E2,1E0,3E0,4E0,-2.170786E-1,8E0,3.62E2,1.8181819E5,6.5535E4,-2.1752961E-1,8E0,2.052E3,1.96E2,1.8E1,4.25E2,6.37564E2,1.6E1,7.25E2,3.2E1,-2.175483E-1,2.8551E4,-3.4460142E-2,1.3636343E-1,1.8E2,2.51E2,8E0,5.3475938E3,1.46E2,1.2795156E-1,-2.1724215E-1,8E0,1.3613772E-1,-1.5343961E-1,6.37E7,2.238E3,7.0921987E3,2.3E2,2.92E4,1.6403E4,2.6883E4,4.1861145E1,2E0,1.6403E4,5.24E2,-2.1711433E-1,-2.1751182E-1,1.2763892E-1,-2.1656254E-1,1.05728425E-1,-1.7465957E-2,-2.3020051E-1,-3.0613098E-1,1.3643722E-1,-2.1447885E-1,1.3553263E-1,-7.1104304E-3,-2.3437946E-1,-6.544187E-2,-2.1645354E-1,-2.1871193E-1,-1.4273151E-2,-1.5946849E-1,8.731283E-2,-1.04527056E-1,1.3921134E-1,-8.288578E-2,-2.2016394E-1,1.2755743E-1,-3.5154045E-1,-1.2259219E-1,1.2756579E-1,-2.2059874E-1,-1.5515351E-1,-2.0608544E-1,3.8675133E-2,-2.4886744E-1,1.3523005E-1,7.068374E-2,-2.2041905E-1,-1.13964565E-2,1.3267383E-1,-2.1395238E-1,2.3367157E-2,1.3049106E-1,-1.3671754E-1],"split_indices":[5,0,8,4,7,4,9,4,4,4,8,0,6,7,1,2,5,10,0,1,4,6,4,0,1,4,11,11,8,8,4,8,1,0,4,0,0,4,4,1,6,5,0,0,1,0,0,10,4,6,8,4,4,4,6,11,4,1,0,0,0,0,0,0,0,0,0,0,0,0,0,0,0,0,0,0,0,0,0,0,0,0,0,0,0,0,0,0,0,0,0,0,0,0,0,0,0,0,0],"split_type":[0,0,0,0,0,0,0,0,0,0,0,0,0,0,0,0,0,0,0,0,0,0,0,0,0,0,0,0,0,0,0,0,0,0,0,0,0,0,0,0,0,0,0,0,0,0,0,0,0,0,0,0,0,0,0,0,0,0,0,0,0,0,0,0,0,0,0,0,0,0,0,0,0,0,0,0,0,0,0,0,0,0,0,0,0,0,0,0,0,0,0,0,0,0,0,0,0,0,0],"sum_hessian":[5.637647E5,1.6435297E5,3.994117E5,1.4642061E5,1.7932371E4,3.1108553E5,8.832617E4,1.4318525E5,3.2353484E3,1.5879975E4,2.052396E3,6.8145693E3,3.0427097E5,6.481762E4,2.350855E4,7.83565E4,6.4828754E4,2.9144958E3,3.208526E2,1.5700472E4,1.7950291E2,8.2093445E1,1.9703025E3,6.433051E3,3.8151834E2,5.857178E3,2.9841378E5,5.753271E4,7.2849116E3,2.1744908E4,1.7636434E3,7.7485086E4,8.7141833E2,3.0229617E4,3.4599137E4,2.4867923E0,2.912009E3,1.5560556E4,1.3991568E2,4.928566E1,1.3021725E2,4.6225822E1,3.5867622E1,1.9667205E3,3.5820253E0,3.798254E2,1.6929344E0,2.9894285E3,2.8677498E3,2.9105412E5,7.35967E3,3.4174543E4,2.3358166E4,5.8983457E3,1.3865657E3,2.096369E4,7.812175E2,2.148427E1,1.7421592E3,7.747166E4,1.3428957E1,6.168152E2,2.5460315E2,1.89366E4,1.5662536E4,4.5047426E0,1.5556052E4,4.9381916E1,9.053376E1,4.5888145E1,3.3975143E0,1.5532676E1,1.1468458E2,4.5116543E1,1.1092784E0,1.9406023E0,1.641423E0,1.1454558E3,1.8439727E3,1.3419933E1,2.8543298E3,2.9025712E5,7.9698376E2,5.062099E3,2.297571E3,3.333096E4,8.4358276E2,1.8737814E4,4.6203516E3,8.259084E1,5.815755E3,2.0357168E0,1.38453E3,6.369306E2,2.032676E4,6.1497485E2,1.6624263E2,2.02855E1,1.1987714E0],"tree_param":{"num_deleted":"0","num_feature":"12","num_nodes":"99","size_leaf_vector":"1"}},{"base_weights":[1.2398902E-2,-1.3957089E0,6.1864066E-1,-1.6583126E0,8.8755584E-1,1.2000738E0,-5.2337396E-1,-1.7139019E0,9.700581E-1,1.2726886E0,-1.8883175E0,-8.7350893E-1,1.2533058E0,-1.6921315E0,7.801565E-2,-1.935653E0,-1.4465418E0,1.3154472E0,-1.941756E-1,1.3052324E0,-1.3616062E0,-5.95596E-1,-1.9404427E0,3.2264367E-2,-1.9638948E0,-2.3980386E0,1.2643533E0,-1.9553944E0,1.2930292E0,-1.7823136E0,4.9432954E-1,-1.9447734E0,-1.110771E0,-1.945657E-1,-1.0123742E0,-3.1752966E-2,1.31707E-1,1.3162925E0,1.0880947E-1,-2.4597155E-1,-1.7793868E0,-1.9121965E0,1.2306325E0,-1.9428177E0,-4.8458937E-1,-1.2455871E0,1.3419757E0,-1.942711E-1,-2.3327897E-1,-2.665909E0,1.2061173E0,1.2717147E0,-2.3456612E0,-1.9845048E0,7.424594E-1,1.3238548E0,-2.3705387E-1,-2.03076E0,1.2952297E0,9.269492E-1,-1.8835769E0,-1.9453035E-1,1.229546E-1,1.3416995E-1,-1.8299387E-1,4.447818E-2,-1.6185108E-1,-2.5229695E-1,1.3178107E-1,-1.9202347E-1,1.3058464E-1,1.3704625E-2,-1.1333268E-1,-1.9231565E-1,-4.4132568E-2,-1.9518103E-1,-1.3489323E-2,4.7871806E-2,1.2548809E-1,-1.9453351E-1,-1.3907045E-1,-1.4673978E-1,8.396015E-2,-1.8270113E-1,1.4270101E-1,1.312269E-1,1.3994889E-1,-2.176084E-1,-3.917931E-1,1.2819014E-1,-1.1912414E-1,-3.71538E-1,1.276201E-1,-2.4119022E-1,3.1906888E-2,-2.0154105E-1,-1.3694307E-1,1.3148089E-1,-2.0179546E-1,-1.7210236E-1,1.3279167E-1,-3.0789685E-1,-1.9931431E-1,-2.2837186E-1,1.3265525E-1,-2.740979E-1,1.209206E-1,-1.996739E-1,-8.720844E-2],"categories":[],"categories_nodes":[],"categories_segments":[],"categories_sizes":[],"default_left":[0,0,0,0,0,0,0,0,0,0,0,0,0,0,0,0,0,0,0,0,0,0,0,0,0,0,0,0,0,0,0,0,0,0,0,0,0,0,0,0,0,0,0,0,0,0,0,0,0,0,0,0,0,0,0,0,0,0,0,0,0,0,0,0,0,0,0,0,0,0,0,0,0,0,0,0,0,0,0,0,0,0,0,0,0,0,0,0,0,0,0,0,0,0,0,0,0,0,0,0,0,0,0,0,0,0,0,0,0],"id":3,"left_children":[1,3,5,7,9,11,13,15,17,19,21,23,25,27,29,31,33,35,-1,37,39,41,43,45,47,49,51,53,55,57,59,61,63,-1,65,-1,-1,67,69,71,73,75,77,79,81,83,85,-1,-1,87,89,91,93,95,97,99,-1,101,103,105,107,-1,-1,-1,-1,-1,-1,-1,-1,-1,-1,-1,-1,-1,-1,-1,-1,-1,-1,-1,-1,-1,-1,-1,-1,-1,-1,-1,-1,-1,-1,-1,-1,-1,-1,-1,-1,-1,-1,-1,-1,-1,-1,-1,-1,-1,-1,-1,-1],"loss_changes":[4.6555453E5,9.841547E4,2.5314095E5,2.1509656E4,1.810295E4,2.7885219E4,9.040135E4,8.5438125E3,3.069457E3,1.2764688E3,1.3787305E2,6.2452666E3,9.938156E3,3.434235E4,6.577038E4,5.9065625E2,1.41616875E4,7.644043E0,0E0,1.9421289E2,8.4360016E1,1.981033E2,5.915039E0,5.7841167E3,1.7889648E1,7.208203E2,6.5285625E3,3.1550781E3,4.0312695E2,1.187625E4,7.138801E4,1.3353125E2,1.526385E3,0E0,3.0875723E4,0E0,0E0,8.815039E1,3.3191663E2,1.7396566E1,2.4584015E1,3.0949707E0,3.219986E-2,4.5410156E-2,7.16876E0,2.7208955E3,1.0791016E0,0E0,0E0,4.159673E2,1.0994469E1,5.4875625E3,8.90376E1,7.524219E2,6.8104675E2,4.573291E1,0E0,5.6046094E2,1.3313696E2,6.0787535E4,1.2209297E3,0E0,0E0,0E0,0E0,0E0,0E0,0E0,0E0,0E0,0E0,0E0,0E0,0E0,0E0,0E0,0E0,0E0,0E0,0E0,0E0,0E0,0E0,0E0,0E0,0E0,0E0,0E0,0E0,0E0,0E0,0E0,0E0,0E0,0E0,0E0,0E0,0E0,0E0,0E0,0E0,0E0,0E0,0E0,0E0,0E0,0E0,0E0,0E0],"parents":[2147483647,0,0,1,1,2,2,3,3,4,4,5,5,6,6,7,7,8,8,9,9,10,10,11,11,12,12,13,13,14,14,15,15,16,16,17,17,19,19,20,20,21,21,22,22,23,23,24,24,25,25,26,26,27,27,28,28,29,29,30,30,31,31,32,32,34,34,37,37,38,38,39,39,40,40,41,41,42,42,43,43,44,44,45,45,46,46,49,49,50,50,51,51,52,52,53,53,54,54,55,55,57,57,58,58,59,59,60,60],"right_children":[2,4,6,8,10,12,14,16,18,20,22,24,26,28,30,32,34,36,-1,38,40,42,44,46,48,50,52,54,56,58,60,62,64,-1,66,-1,-1,68,70,72,74,76,78,80,82,84,86,-1,-1,88,90,92,94,96,98,100,-1,102,104,106,108,-1,-1,-1,-1,-1,-1,-1,-1,-1,-1,-1,-1,-1,-1,-1,-1,-1,-1,-1,-1,-1,-1,-1,-1,-1,-1,-1,-1,-1,-1,-1,-1,-1,-1,-1,-1,-1,-1,-1,-1,-1,-1,-1,-1,-1,-1,-1,-1],"split_conditions":[7.37E2,6.4E1,2.2E1,3.2738E4,9.781729E-2,4.488421E-2,1.5E1,2.6883E4,3.3304E4,2.78E2,8E0,2.238E3,4E1,6.37E7,6.02E2,1E0,3E0,4E0,-1.941756E-1,8E0,3.62E2,1.8181819E5,6.5535E4,6.37E7,2.6635086E-2,6.480189E3,1.68E2,4.072E3,5.12E2,1.6403E4,5.6E2,7.25E2,1.4E1,-1.945657E-1,4E0,-3.1752966E-2,1.31707E-1,1.8E2,2.51E2,7E0,4.06E2,1.46E2,3E0,5.24E2,8E0,2.049E3,4E1,-1.942711E-1,-2.3327897E-1,1E0,6.1124695E2,0E0,1.1713222E4,2.92E4,3.3E1,2.3E2,-2.3705387E-1,8.145E3,1E0,2.3E2,6.5285956E5,-1.9453035E-1,1.229546E-1,1.3416995E-1,-1.8299387E-1,4.447818E-2,-1.6185108E-1,-2.5229695E-1,1.3178107E-1,-1.9202347E-1,1.3058464E-1,1.3704625E-2,-1.1333268E-1,-1.9231565E-1,-4.4132568E-2,-1.9518103E-1,-1.3489323E-2,4.7871806E-2,1.2548809E-1,-1.9453351E-1,-1.3907045E-1,-1.4673978E-1,8.396015E-2,-1.8270113E-1,1.4270101E-1,1.312269E-1,1.3994889E-1,-2.176084E-1,-3.917931E-1,1.2819014E-1,-1.1912414E-1,-3.71538E-1,1.276201E-1,-2.4119022E-1,3.1906888E-2,-2.0154105E-1,-1.3694307E-1,1.3148089E-1,-2.0179546E-1,-1.7210236E-1,1.3279167E-1,-3.0789685E-1,-1.9931431E-1,-2.2837186E-1,1.3265525E-1,-2.740979E-1,1.209206E-1,-1.996739E-1,-8.720844E-2],"split_indices":[5,0,8,4,7,6,11,4,4,4,8,4,0,10,10,2,5,10,0,1,4,6,4,10,6,7,1,0,4,4,8,8,8,0,5,0,0,4,4,5,9,5,5,11,1,4,1,0,0,3,6,11,7,4,8,8,0,5,10,8,9,0,0,0,0,0,0,0,0,0,0,0,0,0,0,0,0,0,0,0,0,0,0,0,0,0,0,0,0,0,0,0,0,0,0,0,0,0,0,0,0,0,0,0,0,0,0,0,0],"split_type":[0,0,0,0,0,0,0,0,0,0,0,0,0,0,0,0,0,0,0,0,0,0,0,0,0,0,0,0,0,0,0,0,0,0,0,0,0,0,0,0,0,0,0,0,0,0,0,0,0,0,0,0,0,0,0,0,0,0,0,0,0,0,0,0,0,0,0,0,0,0,0,0,0,0,0,0,0,0,0,0,0,0,0,0,0,0,0,0,0,0,0,0,0,0,0,0,0,0,0,0,0,0,0,0,0,0,0,0,0],"sum_hessian":[5.4536494E5,1.6413348E5,3.8123147E5,1.4720353E5,1.6929955E4,2.5261678E5,1.2861468E5,1.4415503E5,3.0484927E3,1.4867706E4,2.062248E3,6.322344E3,2.4629444E5,4.369492E4,8.491976E4,7.879526E4,6.535978E4,2.725725E3,3.2276773E2,1.4686772E4,1.8093405E2,8.041282E1,1.9818352E3,3.4540598E3,2.8682847E3,7.4228784E2,2.4555216E5,4.015406E4,3.5408618E3,1.5528086E4,6.939167E4,7.793222E4,8.6303406E2,3.040407E4,3.495571E4,2.5127687E0,2.7232122E3,1.4552148E4,1.34624E2,4.9728523E1,1.3120554E2,4.669876E1,3.3714058E1,1.9782734E3,3.5617118E0,1.7483191E3,1.7057406E3,2.7184443E3,1.4984044E2,6.91178E2,5.1109856E1,2.450531E5,4.9906033E2,3.9725676E4,4.283844E2,3.5119504E3,2.8911274E1,1.4368476E4,1.1596106E3,5.8710844E4,1.068083E4,7.791959E4,1.2626013E1,1.9549638E2,6.6753766E2,1.026907E4,2.4686643E4,5.095705E0,1.4547053E4,4.9728043E1,8.489594E1,3.5325985E1,1.4402541E1,1.180809E2,1.3124627E1,4.5584553E1,1.1142073E0,1.7012902E0,3.2012768E1,1.966782E3,1.1491423E1,1.9823064E0,1.5794054E0,1.4361917E3,3.1212744E2,1.1404761E3,5.6526465E2,4.9877972E2,1.9239822E2,4.999473E1,1.1151241E0,2.1950659E2,2.448336E5,4.8704794E2,1.2012382E1,3.782291E4,1.902764E3,3.552499E2,7.313449E1,4.1155477E0,3.507835E3,4.9497702E2,1.3873498E4,9.43692E0,1.1501737E3,4.1945054E3,5.4516336E4,9.605254E3,1.0755762E3],"tree_param":{"num_deleted":"0","num_feature":"12","num_nodes":"109","size_leaf_vector":"1"}},{"base_weights":[1.3980089E-2,-1.2794708E0,5.905774E-1,-1.5129523E0,8.549802E-1,1.1575391E0,-4.8315844E-1,-1.5620757E0,9.358056E-1,1.2333887E0,-1.7270883E0,-8.0199176E-1,1.2101554E0,-9.2023796E-1,9.0980405E-1,-1.7693657E0,-1.3136812E0,1.2760347E0,-1.7749228E-1,1.265933E0,-1.2347072E0,-5.5287015E-1,-1.7735735E0,3.7325587E-2,-1.7880989E0,1.2231467E0,-1.8579812E0,-1.4970059E0,1.2728822E0,1.1445113E0,-1.8217199E0,-1.7776204E0,-1.0190024E0,-1.7784505E-1,-9.1395986E-1,-2.9279774E-2,1.2777182E-1,1.2769231E0,1.0465304E-1,-2.2117677E-1,-1.6210403E0,-1.7436947E0,1.1884574E0,-1.7757213E-1,-4.5346597E-1,-1.104167E0,1.297978E0,-8.9383227E-1,-1.7919536E0,-2.0890024E0,1.2303915E0,-2.084449E0,-1.7690483E-1,-4.6008232E-1,-1.6710287E0,-1.7222078E-1,1.2833346E0,1.2535079E0,-2.1616678E0,-7.901249E-1,-1.9159036E0,-1.7780931E-1,1.1886283E-1,-1.7778681E-1,9.7011015E-2,-1.05023505E-2,-1.8807442E-1,-2.1710761E-1,1.2784752E-1,-1.7555532E-1,1.2636876E-1,-4.6626753E-3,-1.8747191E-1,-5.0387688E-2,-1.7719333E-1,-1.7801544E-1,-1.2749301E-2,4.5564923E-2,1.2130761E-1,-1.3616835E-1,8.0854535E-2,-1.6095395E-1,1.4570539E-1,1.2721856E-1,1.3469298E-1,-2.3383461E-1,1.21104956E-1,-1.776186E-1,-2.0545343E-1,-2.435017E-1,1.16147935E-1,-2.8352922E-1,1.23515844E-1,-2.215396E-1,-9.135887E-2,1.2163911E-1,-2.3593271E-1,-1.495368E-1,1.2693994E-1,-1.8508463E-1,-1.3183406E-1,1.2866025E-1,-1.7949326E-1,-1.4221095E-1,1.2722231E-1,-2.1390371E-1,-2.877973E-1,-1.9497585E-1,1.0866036E-2,-2.1145184E-1,-1.7684875E-1],"categories":[],"categories_nodes":[],"categories_segments":[],"categories_sizes":[],"default_left":[0,0,0,0,0,0,0,0,0,0,0,0,0,0,0,0,0,0,0,0,0,0,0,0,0,0,0,0,0,0,0,0,0,0,0,0,0,0,0,0,0,0,0,0,0,0,0,0,0,0,0,0,0,0,0,0,0,0,0,0,0,0,0,0,0,0,0,0,0,0,0,0,0,0,0,0,0,0,0,0,0,0,0,0,0,0,0,0,0,0,0,0,0,0,0,0,0,0,0,0,0,0,0,0,0,0,0,0,0,0,0],"id":4,"left_children":[1,3,5,7,9,11,13,15,17,19,21,23,25,27,29,31,33,35,-1,37,39,41,43,45,47,49,51,53,55,57,59,61,63,-1,65,-1,-1,67,69,71,73,75,77,-1,79,81,83,85,87,89,91,93,95,97,99,-1,101,103,105,107,109,-1,-1,-1,-1,-1,-1,-1,-1,-1,-1,-1,-1,-1,-1,-1,-1,-1,-1,-1,-1,-1,-1,-1,-1,-1,-1,-1,-1,-1,-1,-1,-1,-1,-1,-1,-1,-1,-1,-1,-1,-1,-1,-1,-1,-1,-1,-1,-1,-1,-1],"loss_changes":[3.8983738E5,8.03205E4,2.2009512E5,1.7477062E4,1.5529933E4,2.4395812E4,7.606595E4,7.3309062E3,2.637791E3,1.1149473E3,1.0992041E2,5.1213564E3,9.186656E3,1.2029202E5,1.9132486E4,4.7904688E2,1.2035109E4,7.081543E0,0E0,1.7447461E2,7.047629E1,1.655213E2,4.7338867E0,4.8129834E3,8.205078E0,5.5084062E3,3.6966064E2,1.35861875E4,6.221426E2,9.905117E3,2.2792627E2,1.0975E2,1.2803573E3,0E0,2.7243164E4,0E0,0E0,7.530469E1,2.8110883E2,1.4656669E1,2.115982E1,2.5553284E0,3.5518646E-2,0E0,6.278035E0,2.2743281E3,2.932129E-1,4.6025936E1,8.076172E0,5.6649023E2,4.4407812E3,1.2928906E2,3.570704E2,1.937869E4,4.0865E3,0E0,2.0082617E2,1.3339375E3,8.066895E0,2.0789876E2,5.9597656E1,0E0,0E0,0E0,0E0,0E0,0E0,0E0,0E0,0E0,0E0,0E0,0E0,0E0,0E0,0E0,0E0,0E0,0E0,0E0,0E0,0E0,0E0,0E0,0E0,0E0,0E0,0E0,0E0,0E0,0E0,0E0,0E0,0E0,0E0,0E0,0E0,0E0,0E0,0E0,0E0,0E0,0E0,0E0,0E0,0E0,0E0,0E0,0E0,0E0,0E0],"parents":[2147483647,0,0,1,1,2,2,3,3,4,4,5,5,6,6,7,7,8,8,9,9,10,10,11,11,12,12,13,13,14,14,15,15,16,16,17,17,19,19,20,20,21,21,22,22,23,23,24,24,25,25,26,26,27,27,28,28,29,29,30,30,31,31,32,32,34,34,37,37,38,38,39,39,40,40,41,41,42,42,44,44,45,45,46,46,47,47,48,48,49,49,50,50,51,51,52,52,53,53,54,54,56,56,57,57,58,58,59,59,60,60],"right_children":[2,4,6,8,10,12,14,16,18,20,22,24,26,28,30,32,34,36,-1,38,40,42,44,46,48,50,52,54,56,58,60,62,64,-1,66,-1,-1,68,70,72,74,76,78,-1,80,82,84,86,88,90,92,94,96,98,100,-1,102,104,106,108,110,-1,-1,-1,-1,-1,-1,-1,-1,-1,-1,-1,-1,-1,-1,-1,-1,-1,-1,-1,-1,-1,-1,-1,-1,-1,-1,-1,-1,-1,-1,-1,-1,-1,-1,-1,-1,-1,-1,-1,-1,-1,-1,-1,-1,-1,-1,-1,-1,-1,-1],"split_conditions":[7.37E2,6.4E1,2.2E1,3.2738E4,9.781729E-2,4.488421E-2,2.92E4,2.6883E4,3.3304E4,2.78E2,8E0,2.052E3,6.5236E4,6.37E7,5.79E2,1E0,3E0,4E0,-1.7749228E-1,8E0,3.62E2,1.8181819E5,6.5535E4,6.37E7,2.238E3,4E1,6E0,3.899741E2,2.3E2,2.72E2,3.14484E0,7.25E2,3.2E1,-1.7784505E-1,2.8551E4,-2.9279774E-2,1.2777182E-1,1.8E2,2.51E2,8E0,5.3475938E3,1.46E2,3E0,-1.7757213E-1,8E0,2.049E3,4E1,4E7,2.6635086E-2,6.480189E3,0E0,3.0999532E7,2.52E2,2.6883E4,2.6883E4,-1.7222078E-1,7.25E2,2.3E2,9.605041E4,6.969544E-1,5.5555555E4,-1.7780931E-1,1.1886283E-1,-1.7778681E-1,9.7011015E-2,-1.05023505E-2,-1.8807442E-1,-2.1710761E-1,1.2784752E-1,-1.7555532E-1,1.2636876E-1,-4.6626753E-3,-1.8747191E-1,-5.0387688E-2,-1.7719333E-1,-1.7801544E-1,-1.2749301E-2,4.5564923E-2,1.2130761E-1,-1.3616835E-1,8.0854535E-2,-1.6095395E-1,1.4570539E-1,1.2721856E-1,1.3469298E-1,-2.3383461E-1,1.21104956E-1,-1.776186E-1,-2.0545343E-1,-2.435017E-1,1.16147935E-1,-2.8352922E-1,1.23515844E-1,-2.215396E-1,-9.135887E-2,1.2163911E-1,-2.3593271E-1,-1.495368E-1,1.2693994E-1,-1.8508463E-1,-1.3183406E-1,1.2866025E-1,-1.7949326E-1,-1.4221095E-1,1.2722231E-1,-2.1390371E-1,-2.877973E-1,-1.9497585E-1,1.0866036E-2,-2.1145184E-1,-1.7684875E-1],"split_indices":[5,0,8,4,7,6,4,4,4,4,8,4,11,10,8,2,5,10,0,1,4,6,4,10,4,0,8,7,8,1,6,8,1,0,4,0,0,4,4,1,6,5,5,0,1,4,1,10,6,7,11,11,4,4,4,0,8,8,7,6,7,0,0,0,0,0,0,0,0,0,0,0,0,0,0,0,0,0,0,0,0,0,0,0,0,0,0,0,0,0,0,0,0,0,0,0,0,0,0,0,0,0,0,0,0,0,0,0,0,0,0],"split_type":[0,0,0,0,0,0,0,0,0,0,0,0,0,0,0,0,0,0,0,0,0,0,0,0,0,0,0,0,0,0,0,0,0,0,0,0,0,0,0,0,0,0,0,0,0,0,0,0,0,0,0,0,0,0,0,0,0,0,0,0,0,0,0,0,0,0,0,0,0,0,0,0,0,0,0,0,0,0,0,0,0,0,0,0,0,0,0,0,0,0,0,0,0,0,0,0,0,0,0,0,0,0,0,0,0,0,0,0,0,0,0],"sum_hessian":[5.227081E5,1.611677E5,3.615404E5,1.4527661E5,1.5891104E4,2.3660594E5,1.2493445E5,1.4241995E5,2.856656E3,1.3860356E4,2.0307468E3,6.1866978E3,2.3041923E5,9.50959E4,2.9838559E4,7.763005E4,6.4789902E4,2.5385647E3,3.1809122E2,1.3680452E4,1.7990404E2,7.782319E1,1.9529236E3,3.3426174E3,2.8440803E3,2.294483E5,9.7094543E2,7.529453E4,1.980137E4,2.7478074E4,2.360484E3,7.678397E4,8.460743E2,2.9955832E4,3.483407E4,2.5357273E0,2.536029E3,1.35521E4,1.2835286E2,5.0083725E1,1.2982031E2,4.6216324E1,3.1606863E1,1.9494069E3,3.5167851E0,1.7542802E3,1.5883373E3,1.32060995E1,2.8308743E3,5.0016052E2,2.2894812E5,8.554612E2,1.1548421E2,1.0820955E4,6.4473574E4,6.8293976E1,1.9733074E4,2.6601705E4,8.7637054E2,1.9826561E2,2.1622183E3,7.677214E4,1.1830056E1,6.125042E2,2.3357007E2,1.896588E4,1.5868189E4,5.468634E0,1.3546631E4,4.9074883E1,7.9277985E1,4.623165E1,3.8520737E0,1.5964396E1,1.1385592E2,4.509753E1,1.1187938E0,1.6614015E0,2.9945461E1,1.9991211E0,1.517664E0,1.4654863E3,2.8879385E2,1.057916E3,5.304213E2,7.765777E0,5.4403224E0,2.6778376E3,1.5303662E2,4.5226746E2,4.789307E1,2.6743103E2,2.286807E5,7.6860925E2,8.6851944E1,7.0755394E1,4.472882E1,6.76906E3,4.0518945E3,4.26992E4,2.1774375E4,1.9712729E4,2.034504E1,1.8425874E2,2.6417445E4,8.533947E2,2.2975813E1,8.605985E1,1.1220575E2,9.1546356E2,1.2467548E3],"tree_param":{"num_deleted":"0","num_feature":"12","num_nodes":"111","size_leaf_vector":"1"}},{"base_weights":[1.5022621E-2,-1.187394E0,5.6637233E-1,-1.3985876E0,8.275343E-1,1.1205444E0,-4.4991457E-1,-1.4428018E0,9.0691715E-1,1.1998338E0,-1.6043748E0,-7.454178E-1,1.1725452E0,-8.516406E-1,8.772423E-1,-1.6432246E0,-1.2054548E0,1.2424091E0,-1.6482306E-1,1.2324476E0,-1.1325607E0,-5.1862764E-1,-1.6468096E0,3.7769265E-2,-1.6581436E0,1.1854974E0,-1.6605777E0,-1.370777E0,1.2380848E0,1.107529E0,-1.6692477E0,-1.6508086E0,-9.504976E-1,-1.651612E-1,-8.300073E-1,-2.7016306E-2,1.24416605E-1,1.2433693E0,1.0100764E-1,-2.0140406E-1,-1.4980136E0,-1.6148363E0,1.1510491E0,-1.6488109E0,-4.2590404E-1,-9.976279E-1,1.260954E-1,-8.038942E-1,-1.6619738E0,-1.8537195E0,1.192721E0,-1.8606759E0,-1.5840788E-1,-4.1864923E-1,-1.5306172E0,-1.6068183E-1,1.248426E0,1.2157853E0,-1.9351871E0,-7.230168E-1,-1.7563523E0,-1.6512398E-1,1.1524377E-1,1.2692863E-1,-1.5481316E-1,-9.428298E-3,-1.729893E-1,-1.9230641E-1,1.2449511E-1,-1.6297631E-1,1.227358E-1,1.308285E-2,-9.36692E-2,-1.630706E-1,-3.378119E-2,-1.6494998E-1,-1.2050515E-2,4.337862E-2,1.1762958E-1,-1.651225E-1,-1.13754965E-1,-1.2724367E-1,7.796275E-2,-1.4407705E-1,1.3943271E-1,-2.0454521E-1,1.1600753E-1,-1.6497914E-1,-1.857536E-1,-2.1443927E-1,1.1217608E-1,1.19843744E-1,-2.3620366E-1,-1.9773416E-1,-8.170056E-2,1.1241948E-1,-2.0669226E-1,-1.3270174E-1,1.2275225E-1,-1.7011186E-1,-1.1994336E-1,1.251681E-1,-1.6559397E-1,-1.23223476E-1,1.23486295E-1,-1.9141357E-1,-2.3355623E-1,-1.9796793E-1,-1.0758108E-3,-1.9032004E-1,-1.6437511E-1],"categories":[],"categories_nodes":[],"categories_segments":[],"categories_sizes":[],"default_left":[0,0,0,0,0,0,0,0,0,0,0,0,0,0,0,0,0,0,0,0,0,0,0,0,0,0,0,0,0,0,0,0,0,0,0,0,0,0,0,0,0,0,0,0,0,0,0,0,0,0,0,0,0,0,0,0,0,0,0,0,0,0,0,0,0,0,0,0,0,0,0,0,0,0,0,0,0,0,0,0,0,0,0,0,0,0,0,0,0,0,0,0,0,0,0,0,0,0,0,0,0,0,0,0,0,0,0,0,0,0,0],"id":5,"left_children":[1,3,5,7,9,11,13,15,17,19,21,23,25,27,29,31,33,35,-1,37,39,41,43,45,47,49,51,53,55,57,59,61,63,-1,65,-1,-1,67,69,71,73,75,77,79,81,83,-1,85,87,89,91,93,95,97,99,-1,101,103,105,107,109,-1,-1,-1,-1,-1,-1,-1,-1,-1,-1,-1,-1,-1,-1,-1,-1,-1,-1,-1,-1,-1,-1,-1,-1,-1,-1,-1,-1,-1,-1,-1,-1,-1,-1,-1,-1,-1,-1,-1,-1,-1,-1,-1,-1,-1,-1,-1,-1,-1,-1],"loss_changes":[3.299826E5,6.659042E4,1.922004E5,1.4439219E4,1.3443619E4,2.1429469E4,6.420517E4,6.6089062E3,2.2872263E3,9.8083203E2,8.997754E1,4.28063E3,7.886125E3,1.0028822E5,1.6411365E4,3.9426562E2,1.0657023E4,6.599365E0,0E0,1.5679492E2,6.0297714E1,1.4025523E2,3.9326172E0,4.0841047E3,7.713379E0,4.6976875E3,2.9373584E2,1.1268578E4,5.4319336E2,8.455336E3,1.9003516E2,9.2E1,1.0875132E3,0E0,2.2877268E4,0E0,0E0,6.5390625E1,2.407991E2,1.2666068E1,1.9113464E1,2.1871643E0,4.298401E-2,4.580078E-1,5.535763E0,1.8532178E3,0E0,3.7195267E1,3.4921875E0,4.4136157E2,4.3386562E3,1.0347949E2,2.8647003E2,1.5920038E4,3.5781875E3,0E0,1.7535352E2,1.1588711E3,2.963379E0,1.7662305E2,3.2003418E1,0E0,0E0,0E0,0E0,0E0,0E0,0E0,0E0,0E0,0E0,0E0,0E0,0E0,0E0,0E0,0E0,0E0,0E0,0E0,0E0,0E0,0E0,0E0,0E0,0E0,0E0,0E0,0E0,0E0,0E0,0E0,0E0,0E0,0E0,0E0,0E0,0E0,0E0,0E0,0E0,0E0,0E0,0E0,0E0,0E0,0E0,0E0,0E0,0E0,0E0],"parents":[2147483647,0,0,1,1,2,2,3,3,4,4,5,5,6,6,7,7,8,8,9,9,10,10,11,11,12,12,13,13,14,14,15,15,16,16,17,17,19,19,20,20,21,21,22,22,23,23,24,24,25,25,26,26,27,27,28,28,29,29,30,30,31,31,32,32,34,34,37,37,38,38,39,39,40,40,41,41,42,42,43,43,44,44,45,45,47,47,48,48,49,49,50,50,51,51,52,52,53,53,54,54,56,56,57,57,58,58,59,59,60,60],"right_children":[2,4,6,8,10,12,14,16,18,20,22,24,26,28,30,32,34,36,-1,38,40,42,44,46,48,50,52,54,56,58,60,62,64,-1,66,-1,-1,68,70,72,74,76,78,80,82,84,-1,86,88,90,92,94,96,98,100,-1,102,104,106,108,110,-1,-1,-1,-1,-1,-1,-1,-1,-1,-1,-1,-1,-1,-1,-1,-1,-1,-1,-1,-1,-1,-1,-1,-1,-1,-1,-1,-1,-1,-1,-1,-1,-1,-1,-1,-1,-1,-1,-1,-1,-1,-1,-1,-1,-1,-1,-1,-1,-1,-1],"split_conditions":[7.37E2,6.4E1,2.2E1,3.2738E4,9.781729E-2,4.488421E-2,2.92E4,2.6883E4,3.3304E4,2.78E2,8E0,2.052E3,6.5236E4,6.37E7,5.81E2,1E0,3E0,4E0,-1.6482306E-1,8E0,3.62E2,1.8181819E5,6.5535E4,6.37E7,2.238E3,4E1,6E0,3.899741E2,2.3E2,2.72E2,3.14484E0,7.25E2,1.4E1,-1.651612E-1,2.8551E4,-2.7016306E-2,1.24416605E-1,1.8E2,2.51E2,7E0,4.06E2,1.46E2,3E0,5.24E2,8E0,2.049E3,1.260954E-1,4E7,2.6635086E-2,6.480189E3,2E2,3.0999532E7,2.52E2,2.6883E4,2.6883E4,-1.6068183E-1,7.25E2,2.3E2,3.4226133E4,3.0191345E2,5.5555555E4,-1.6512398E-1,1.1524377E-1,1.2692863E-1,-1.5481316E-1,-9.428298E-3,-1.729893E-1,-1.9230641E-1,1.2449511E-1,-1.6297631E-1,1.227358E-1,1.308285E-2,-9.36692E-2,-1.630706E-1,-3.378119E-2,-1.6494998E-1,-1.2050515E-2,4.337862E-2,1.1762958E-1,-1.651225E-1,-1.13754965E-1,-1.2724367E-1,7.796275E-2,-1.4407705E-1,1.3943271E-1,-2.0454521E-1,1.1600753E-1,-1.6497914E-1,-1.857536E-1,-2.1443927E-1,1.1217608E-1,1.19843744E-1,-2.3620366E-1,-1.9773416E-1,-8.170056E-2,1.1241948E-1,-2.0669226E-1,-1.3270174E-1,1.2275225E-1,-1.7011186E-1,-1.1994336E-1,1.251681E-1,-1.6559397E-1,-1.23223476E-1,1.23486295E-1,-1.9141357E-1,-2.3355623E-1,-1.9796793E-1,-1.0758108E-3,-1.9032004E-1,-1.6437511E-1],"split_indices":[5,0,8,4,7,6,4,4,4,4,8,4,11,10,8,2,5,10,0,1,4,6,4,10,4,0,8,7,8,1,6,8,8,0,4,0,0,4,4,5,9,5,5,11,1,4,0,10,6,7,1,11,4,4,4,0,8,8,7,7,7,0,0,0,0,0,0,0,0,0,0,0,0,0,0,0,0,0,0,0,0,0,0,0,0,0,0,0,0,0,0,0,0,0,0,0,0,0,0,0,0,0,0,0,0,0,0,0,0,0,0],"split_type":[0,0,0,0,0,0,0,0,0,0,0,0,0,0,0,0,0,0,0,0,0,0,0,0,0,0,0,0,0,0,0,0,0,0,0,0,0,0,0,0,0,0,0,0,0,0,0,0,0,0,0,0,0,0,0,0,0,0,0,0,0,0,0,0,0,0,0,0,0,0,0,0,0,0,0,0,0,0,0,0,0,0,0,0,0,0,0,0,0,0,0,0,0,0,0,0,0,0,0,0,0,0,0,0,0,0,0,0,0,0,0],"sum_hessian":[4.9774525E5,1.5648097E5,3.4126428E5,1.4163581E5,1.4845168E4,2.2084136E5,1.20422914E5,1.3897105E5,2.6647659E3,1.2874696E4,1.9704722E3,5.9871895E3,2.1485417E5,9.244152E4,2.7981387E4,7.5343125E4,6.3627918E4,2.3559434E3,3.0882263E2,1.2697616E4,1.7707968E2,7.461352E1,1.8958586E3,3.2227703E3,2.7644194E3,2.1387697E5,9.772058E2,7.40469E4,1.8394629E4,2.5661322E4,2.3200654E3,7.452584E4,8.172825E2,2.9074404E4,3.455351E4,2.5560303E0,2.3533875E3,1.2576121E4,1.2149519E2,5.0347572E1,1.2673212E2,4.5061626E1,2.9551891E1,1.8924064E3,3.4523656E0,1.745462E3,1.4773083E3,1.3280939E1,2.7511384E3,5.0652664E2,2.1337044E5,8.621265E2,1.1507924E2,1.0644415E4,6.3402484E4,6.606213E1,1.8328566E4,2.478027E4,8.810515E2,1.9635281E2,2.1237126E3,7.451479E4,1.1052874E1,1.731245E2,6.44158E2,1.901138E4,1.5542132E4,5.6728277E0,1.2570448E4,4.772032E1,7.377487E1,3.5244682E1,1.510289E1,1.1336143E2,1.33706875E1,4.393856E1,1.1230638E0,1.6230342E0,2.7928858E1,1.8812937E3,1.1112624E1,1.9955665E0,1.4567991E0,1.4729716E3,2.724905E2,8.111575E0,5.169364E0,2.5986895E3,1.5244891E2,4.6170245E2,4.4824184E1,2.1302853E5,3.4190894E2,7.7463965E2,8.748689E1,6.9071335E1,4.6007904E1,6.859495E3,3.7849202E3,4.1851945E4,2.1550535E4,1.8308617E4,1.9949995E1,1.9113087E2,2.4589139E4,8.425327E2,3.8518784E1,7.038706E1,1.25965744E2,9.147905E2,1.2089221E3],"tree_param":{"num_deleted":"0","num_feature":"12","num_nodes":"111","size_leaf_vector":"1"}},{"base_weights":[1.569835E-2,-1.1038702E0,5.496877E-1,-1.3038219E0,7.657386E-1,1.0939417E0,-4.1729966E-1,-1.3530354E0,9.2802566E-1,1.1706372E0,-1.5740861E0,-6.9931364E-1,1.1458548E0,-1.3530756E0,9.526253E-2,-1.5552334E0,-1.116163E0,1.2157785E0,-1.6109153E0,1.2048073E0,-1.1834544E0,-4.904705E-1,-1.6105101E0,3.793907E-2,-1.5567522E0,1.1588627E0,-1.5136359E0,-1.5440544E0,1.184311E0,-5.765797E-1,9.2866546E-1,-1.5444199E0,-4.251876E0,-1.552401E-1,-7.5890285E-1,-2.4941506E-2,1.217288E-1,-1.5490283E-1,-4.3631598E-1,1.2151351E0,9.779881E-2,-1.0463101E0,-4.4884095E-1,-1.5130876E0,1.1174351E0,-1.547606E0,-2.0144467E0,-9.1048974E-1,1.2293338E-1,-7.3474616E-1,-1.5605597E0,1.1624761E0,-5.0377245E0,-1.6951586E0,-1.445325E-1,-1.57513E0,9.5057106E-1,1.2171186E0,-2.0328217E0,-1.5170379E0,1.209235E0,1.2449374E0,-1.5661142E0,-1.546117E-1,1.20835006E-1,-5.2783006E-1,-1.7548983E-1,4.257093E-2,-1.2634073E-1,-1.7387521E-1,1.21666424E-1,-1.5307108E-1,1.1957257E-1,-1.8181754E-2,-1.3985613E-1,-1.5468626E-1,-1.13905985E-2,4.1304436E-2,1.1435343E-1,-1.5495127E-1,-4.012666E-2,-2.029697E-1,7.428048E-2,-1.3043351E-1,1.3422073E-1,-1.8349843E-1,1.11488454E-1,-1.5508817E-1,-1.7108928E-1,-3.062696E-1,1.16721205E-1,-2.1120071E-1,-5.3353924E-1,-1.8044272E-1,-7.337565E-2,1.04375914E-1,-1.8602799E-1,-1.6036473E-1,-1.03454165E-1,1.3948342E-1,-1.5377264E-1,-1.3719077E-1,1.22121334E-1,-2.274107E-1,-1.3881989E-1,-1.1519332E-2,-1.6928801E-1,-1.5066178E-1,1.22055724E-1,1.2608236E-1,-1.7574388E-1,-1.6530089E-1,5.2176487E-2],"categories":[],"categories_nodes":[],"categories_segments":[],"categories_sizes":[],"default_left":[0,0,0,0,0,0,0,0,0,0,0,0,0,0,0,0,0,0,0,0,0,0,0,0,0,0,0,0,0,0,0,0,0,0,0,0,0,0,0,0,0,0,0,0,0,0,0,0,0,0,0,0,0,0,0,0,0,0,0,0,0,0,0,0,0,0,0,0,0,0,0,0,0,0,0,0,0,0,0,0,0,0,0,0,0,0,0,0,0,0,0,0,0,0,0,0,0,0,0,0,0,0,0,0,0,0,0,0,0,0,0,0,0],"id":6,"left_children":[1,3,5,7,9,11,13,15,17,19,21,23,25,27,29,31,33,35,37,39,41,43,45,47,49,51,53,55,57,59,61,63,65,-1,67,-1,-1,-1,-1,69,71,73,-1,75,77,79,81,83,-1,85,87,89,91,93,95,97,99,101,103,105,107,109,111,-1,-1,-1,-1,-1,-1,-1,-1,-1,-1,-1,-1,-1,-1,-1,-1,-1,-1,-1,-1,-1,-1,-1,-1,-1,-1,-1,-1,-1,-1,-1,-1,-1,-1,-1,-1,-1,-1,-1,-1,-1,-1,-1,-1,-1,-1,-1,-1,-1,-1],"loss_changes":[2.8182594E5,5.691075E4,1.6797803E5,1.5106734E4,1.3936816E4,1.9013156E4,5.513392E4,6.443E3,2.1701174E3,1.01009766E3,8.486914E1,3.6327192E3,6.8681094E3,1.9714625E4,4.158481E4,2.1101875E3,9.656859E3,6.2006836E0,4.477179E1,1.4119922E2,7.685077E1,1.2010341E2,5.0222168E1,3.4935623E3,7.168457E0,4.4284688E3,2.3995459E2,2.9343438E3,3.030735E2,6.90635E4,2.6157549E4,3.3967188E2,7.3234326E2,0E0,2.0362744E4,0E0,0E0,0E0,0E0,5.743164E1,2.0805516E2,5.2747025E1,0E0,1.9241028E0,5.292511E-2,3.3583984E0,1.3262085E1,1.5290359E3,0E0,3.08196E1,1.1928711E0,3.953625E3,8.914551E1,8.831299E1,2.3484802E2,5.7440625E2,5.174066E2,3.1570312E1,1.3731155E0,6.6396484E3,4.3804297E2,1.4054453E3,6.7758984E2,0E0,0E0,0E0,0E0,0E0,0E0,0E0,0E0,0E0,0E0,0E0,0E0,0E0,0E0,0E0,0E0,0E0,0E0,0E0,0E0,0E0,0E0,0E0,0E0,0E0,0E0,0E0,0E0,0E0,0E0,0E0,0E0,0E0,0E0,0E0,0E0,0E0,0E0,0E0,0E0,0E0,0E0,0E0,0E0,0E0,0E0,0E0,0E0,0E0,0E0],"parents":[2147483647,0,0,1,1,2,2,3,3,4,4,5,5,6,6,7,7,8,8,9,9,10,10,11,11,12,12,13,13,14,14,15,15,16,16,17,17,18,18,19,19,20,20,21,21,22,22,23,23,24,24,25,25,26,26,27,27,28,28,29,29,30,30,31,31,32,32,34,34,39,39,40,40,41,41,43,43,44,44,45,45,46,46,47,47,49,49,50,50,51,51,52,52,53,53,54,54,55,55,56,56,57,57,58,58,59,59,60,60,61,61,62,62],"right_children":[2,4,6,8,10,12,14,16,18,20,22,24,26,28,30,32,34,36,38,40,42,44,46,48,50,52,54,56,58,60,62,64,66,-1,68,-1,-1,-1,-1,70,72,74,-1,76,78,80,82,84,-1,86,88,90,92,94,96,98,100,102,104,106,108,110,112,-1,-1,-1,-1,-1,-1,-1,-1,-1,-1,-1,-1,-1,-1,-1,-1,-1,-1,-1,-1,-1,-1,-1,-1,-1,-1,-1,-1,-1,-1,-1,-1,-1,-1,-1,-1,-1,-1,-1,-1,-1,-1,-1,-1,-1,-1,-1,-1,-1,-1],"split_conditions":[8.1E2,6.4E1,2.2E1,3.2738E4,9.781729E-2,4.488421E-2,1.5E1,2.6883E4,3.3304E4,2.78E2,8E0,2.052E3,6.5236E4,6.37E7,2.6883E4,7.37E2,3E0,4E0,7.37E2,8E0,7.37E2,1.8181819E5,7.37E2,6.37E7,2.238E3,3.3304E4,6E0,4.072E3,5.12E2,6.37E7,6.4E2,9.35E2,1.6222536E4,-1.552401E-1,4E0,-2.4941506E-2,1.217288E-1,-1.5490283E-1,-4.3631598E-1,1.8E2,2.51E2,3.62E2,-4.4884095E-1,1.46E2,3E0,6.5535E4,8.365E3,2.049E3,1.2293338E-1,4E7,2.6635086E-2,0E0,4E1,3.0999532E7,2.52E2,2.92E4,3.3E1,2.3E2,4.16E2,2.26E2,1.16E2,2.72E2,6.5285956E5,-1.546117E-1,1.20835006E-1,-5.2783006E-1,-1.7548983E-1,4.257093E-2,-1.2634073E-1,-1.7387521E-1,1.21666424E-1,-1.5307108E-1,1.1957257E-1,-1.8181754E-2,-1.3985613E-1,-1.5468626E-1,-1.13905985E-2,4.1304436E-2,1.1435343E-1,-1.5495127E-1,-4.012666E-2,-2.029697E-1,7.428048E-2,-1.3043351E-1,1.3422073E-1,-1.8349843E-1,1.11488454E-1,-1.5508817E-1,-1.7108928E-1,-3.062696E-1,1.16721205E-1,-2.1120071E-1,-5.3353924E-1,-1.8044272E-1,-7.337565E-2,1.04375914E-1,-1.8602799E-1,-1.6036473E-1,-1.03454165E-1,1.3948342E-1,-1.5377264E-1,-1.3719077E-1,1.22121334E-1,-2.274107E-1,-1.3881989E-1,-1.1519332E-2,-1.6928801E-1,-1.5066178E-1,1.22055724E-1,1.2608236E-1,-1.7574388E-1,-1.6530089E-1,5.2176487E-2],"split_indices":[5,0,8,4,7,6,11,4,4,4,8,4,11,10,4,5,5,10,5,1,5,6,5,10,4,4,8,0,4,10,8,8,7,0,5,0,0,0,0,4,4,4,0,5,5,4,4,4,0,10,6,8,0,11,4,4,8,8,8,4,0,1,9,0,0,0,0,0,0,0,0,0,0,0,0,0,0,0,0,0,0,0,0,0,0,0,0,0,0,0,0,0,0,0,0,0,0,0,0,0,0,0,0,0,0,0,0,0,0,0,0,0,0],"split_type":[0,0,0,0,0,0,0,0,0,0,0,0,0,0,0,0,0,0,0,0,0,0,0,0,0,0,0,0,0,0,0,0,0,0,0,0,0,0,0,0,0,0,0,0,0,0,0,0,0,0,0,0,0,0,0,0,0,0,0,0,0,0,0,0,0,0,0,0,0,0,0,0,0,0,0,0,0,0,0,0,0,0,0,0,0,0,0,0,0,0,0,0,0,0,0,0,0,0,0,0,0,0,0,0,0,0,0,0,0,0,0,0,0],"sum_hessian":[4.7140675E5,1.5223272E5,3.1917403E5,1.3752495E5,1.4707776E4,2.0422756E5,1.1494647E5,1.3455825E5,2.9666921E3,1.2538527E4,2.1692493E3,5.745526E3,1.9848205E5,4.06786E4,7.426787E4,7.258933E4,6.196893E4,2.6651558E3,3.0153635E2,1.2359613E4,1.7891386E2,7.101524E1,2.0982341E3,3.0897861E3,2.6557397E3,1.9751653E5,9.65507E2,3.7831566E4,2.8470354E3,4.1119758E4,3.314811E4,7.230098E4,2.8835532E2,2.7899031E4,3.40699E4,2.5739985E0,2.6625818E3,2.9643356E2,5.1027875E0,1.2245274E4,1.14339294E2,1.7304948E2,5.864376E0,4.3444073E1,2.7571167E1,1.819689E3,2.785451E2,1.7204388E3,1.3693473E3,1.3139224E1,2.6426006E3,1.9740223E5,1.1429969E2,8.522705E2,1.1323651E2,3.736646E4,4.651067E2,2.8189104E3,2.8124905E1,2.6935137E4,1.4184621E4,2.9419055E4,3.7290552E3,7.225686E4,4.41116E1,2.0356334E2,8.479198E1,1.0176027E4,2.3893871E4,5.74765E0,1.2239526E4,4.5885315E1,6.845397E1,5.053732E1,1.2251216E2,4.231703E1,1.1270404E0,1.5862331E0,2.5984934E1,1.8163159E3,3.3729415E0,2.772754E2,1.2697265E0,1.46477E3,2.5566884E2,8.243539E0,4.895685E0,2.4933972E3,1.4920331E2,2.2029214E2,1.9718194E5,1.1302724E1,1.0299696E2,7.6450366E2,8.776685E1,6.713313E1,4.610338E1,3.5492195E4,1.874266E3,3.9501904E2,7.008766E1,3.9237218E0,2.8149866E3,1.8625484E1,9.499419E0,3.0022573E3,2.3932879E4,5.834139E1,1.4126279E4,2.926479E4,1.5426624E2,3.5802578E3,1.4879735E2],"tree_param":{"num_deleted":"0","num_feature":"12","num_nodes":"113","size_leaf_vector":"1"}},{"base_weights":[1.6206121E-2,-1.0416746E0,5.315929E-1,-1.2268707E0,7.457529E-1,1.0644403E0,-3.9616933E-1,-1.2722819E0,9.0562105E-1,1.1453378E0,-1.4843936E0,-6.607398E-1,1.1157469E0,-1.2363194E0,1.14733994E-1,-1.4727932E0,-1.0408871E0,1.1905663E0,-1.5200886E0,1.1799034E0,-1.0823421E0,-1.5227065E0,-5.710812E-1,3.796733E-2,-1.4757179E0,1.1286726E0,-1.3994817E0,-1.439508E0,1.16495E0,-5.49303E-1,9.405817E-1,-1.4644321E0,-3.1071787E0,-1.4729634E-1,-6.9757336E-1,-2.3037056E-2,1.19215705E-1,-1.469507E-1,-3.2396683E-1,1.1901765E0,9.495596E-2,-1.5742934E-1,-1.4539745E0,-1.4724356E0,-1.8282802E0,7.0553917E-1,-1.3009017E0,-8.370663E-1,1.2020146E-1,-6.7967033E-1,-1.47951E-1,-1.7773652E0,1.1365296E0,-1.5673152E0,-1.3367581E-1,-1.4669642E0,9.103301E-1,1.1919614E0,-1.8609573E0,-1.4154799E0,1.1826952E0,1.2109966E0,-1.459036E0,-1.4724436E-1,-7.596188E-2,-1.4825061E-1,-3.5234553E-1,-4.8339455E-3,-1.5419832E-1,-1.5962386E-1,1.1917299E-1,-1.450838E-1,1.1679133E-1,9.247538E-2,-3.4819137E-2,-1.3080327E-1,-3.365676E-1,-1.4744513E-1,-2.8540526E-2,-1.8405722E-1,6.838139E-2,-1.1261918E-1,1.2501606E-1,-5.2211087E-2,-1.4344947E-1,-1.1904768E-1,1.2983778E-1,-1.6762696E-1,1.0743314E-1,-2.0216809E-1,1.07410036E-1,1.1428459E-1,-2.2079289E-1,-1.6733412E-1,-6.610635E-2,1.0151382E-1,-1.6498223E-1,-1.5080355E-1,-7.541686E-2,1.3428774E-1,-1.4406274E-1,-1.29711E-1,1.1953397E-1,-2.0424135E-1,-1.3197933E-1,-1.0439254E-2,-1.593662E-1,-1.4338264E-1,1.1944341E-1,1.22689776E-1,-1.6519858E-1,-1.555584E-1,4.7518156E-2],"categories":[],"categories_nodes":[],"categories_segments":[],"categories_sizes":[],"default_left":[0,0,0,0,0,0,0,0,0,0,0,0,0,0,0,0,0,0,0,0,0,0,0,0,0,0,0,0,0,0,0,0,0,0,0,0,0,0,0,0,0,0,0,0,0,0,0,0,0,0,0,0,0,0,0,0,0,0,0,0,0,0,0,0,0,0,0,0,0,0,0,0,0,0,0,0,0,0,0,0,0,0,0,0,0,0,0,0,0,0,0,0,0,0,0,0,0,0,0,0,0,0,0,0,0,0,0,0,0,0,0,0,0],"id":7,"left_children":[1,3,5,7,9,11,13,15,17,19,21,23,25,27,29,31,33,35,37,39,41,43,45,47,49,51,53,55,57,59,61,63,65,-1,67,-1,-1,-1,-1,69,71,73,75,77,79,81,83,85,-1,87,-1,89,91,93,95,97,99,101,103,105,107,109,111,-1,-1,-1,-1,-1,-1,-1,-1,-1,-1,-1,-1,-1,-1,-1,-1,-1,-1,-1,-1,-1,-1,-1,-1,-1,-1,-1,-1,-1,-1,-1,-1,-1,-1,-1,-1,-1,-1,-1,-1,-1,-1,-1,-1,-1,-1,-1,-1,-1,-1],"loss_changes":[2.4214797E5,4.816258E4,1.4763375E5,1.2767828E4,1.21745205E4,1.6790953E4,4.6764188E4,5.987672E3,1.9022051E3,8.9332324E2,7.1774414E1,3.1200312E3,5.9905625E3,2.010296E4,3.715395E4,9.404531E2,8.889008E3,5.836914E0,2.0416382E1,1.27043945E2,6.079329E1,2.7905762E1,8.0282974E1,3.0068003E3,6.6289062E0,4.186625E3,1.9997168E2,2.4520469E3,2.6496826E2,5.634147E4,1.9595828E4,3.8740625E2,2.3222119E2,0E0,1.8309191E4,0E0,0E0,0E0,0E0,5.0819336E1,1.8098062E2,1.1058401E1,3.0897217E1,3.683838E0,9.819946E0,3.2964653E1,4.926483E0,1.2733481E3,0E0,2.5995045E1,0E0,3.4671326E2,3.8636406E3,7.882495E1,1.957142E2,1.0980469E3,4.486794E2,2.8347656E1,1.357956E-1,5.848328E3,3.862793E2,1.2374922E3,5.7192725E2,0E0,0E0,0E0,0E0,0E0,0E0,0E0,0E0,0E0,0E0,0E0,0E0,0E0,0E0,0E0,0E0,0E0,0E0,0E0,0E0,0E0,0E0,0E0,0E0,0E0,0E0,0E0,0E0,0E0,0E0,0E0,0E0,0E0,0E0,0E0,0E0,0E0,0E0,0E0,0E0,0E0,0E0,0E0,0E0,0E0,0E0,0E0,0E0,0E0,0E0],"parents":[2147483647,0,0,1,1,2,2,3,3,4,4,5,5,6,6,7,7,8,8,9,9,10,10,11,11,12,12,13,13,14,14,15,15,16,16,17,17,18,18,19,19,20,20,21,21,22,22,23,23,24,24,25,25,26,26,27,27,28,28,29,29,30,30,31,31,32,32,34,34,39,39,40,40,41,41,42,42,43,43,44,44,45,45,46,46,47,47,49,49,51,51,52,52,53,53,54,54,55,55,56,56,57,57,58,58,59,59,60,60,61,61,62,62],"right_children":[2,4,6,8,10,12,14,16,18,20,22,24,26,28,30,32,34,36,38,40,42,44,46,48,50,52,54,56,58,60,62,64,66,-1,68,-1,-1,-1,-1,70,72,74,76,78,80,82,84,86,-1,88,-1,90,92,94,96,98,100,102,104,106,108,110,112,-1,-1,-1,-1,-1,-1,-1,-1,-1,-1,-1,-1,-1,-1,-1,-1,-1,-1,-1,-1,-1,-1,-1,-1,-1,-1,-1,-1,-1,-1,-1,-1,-1,-1,-1,-1,-1,-1,-1,-1,-1,-1,-1,-1,-1,-1,-1,-1,-1,-1],"split_conditions":[8.1E2,6.4E1,2.2E1,3.2738E4,9.781729E-2,4.488421E-2,1.6E1,2.6883E4,3.3304E4,2.78E2,1.04E2,2.052E3,6.5236E4,6.37E7,2.6883E4,7.37E2,3E0,4E0,7.37E2,8E0,3.62E2,7.37E2,1.2E2,6.37E7,2.238E3,4E1,6E0,4.072E3,5.12E2,6.37E7,6.4E2,1E0,7.18E2,-1.4729634E-1,2.8551E4,-2.3037056E-2,1.19215705E-1,-1.469507E-1,-3.2396683E-1,1.8E2,2.51E2,1.2048192E4,7.37E2,6.5535E4,8.365E3,2.8399272E5,1.52E2,2.049E3,1.2020146E-1,4E7,-1.47951E-1,6.480189E3,2E2,3.0999532E7,1.6E1,2.92E4,3.3E1,2.3E2,4.16E2,2.26E2,1.16E2,2.72E2,6.5285956E5,-1.4724436E-1,-7.596188E-2,-1.4825061E-1,-3.5234553E-1,-4.8339455E-3,-1.5419832E-1,-1.5962386E-1,1.1917299E-1,-1.450838E-1,1.1679133E-1,9.247538E-2,-3.4819137E-2,-1.3080327E-1,-3.365676E-1,-1.4744513E-1,-2.8540526E-2,-1.8405722E-1,6.838139E-2,-1.1261918E-1,1.2501606E-1,-5.2211087E-2,-1.4344947E-1,-1.1904768E-1,1.2983778E-1,-1.6762696E-1,1.0743314E-1,-2.0216809E-1,1.07410036E-1,1.1428459E-1,-2.2079289E-1,-1.6733412E-1,-6.610635E-2,1.0151382E-1,-1.6498223E-1,-1.5080355E-1,-7.541686E-2,1.3428774E-1,-1.4406274E-1,-1.29711E-1,1.1953397E-1,-2.0424135E-1,-1.3197933E-1,-1.0439254E-2,-1.593662E-1,-1.4338264E-1,1.1944341E-1,1.22689776E-1,-1.6519858E-1,-1.555584E-1,4.7518156E-2],"split_indices":[5,0,8,4,7,6,11,4,4,4,0,4,11,10,4,5,5,10,5,1,4,5,0,10,4,0,8,0,4,10,8,2,10,0,4,0,0,0,0,4,4,6,5,4,4,7,0,4,0,10,0,7,1,11,4,4,8,8,8,4,0,1,9,0,0,0,0,0,0,0,0,0,0,0,0,0,0,0,0,0,0,0,0,0,0,0,0,0,0,0,0,0,0,0,0,0,0,0,0,0,0,0,0,0,0,0,0,0,0,0,0,0,0],"split_type":[0,0,0,0,0,0,0,0,0,0,0,0,0,0,0,0,0,0,0,0,0,0,0,0,0,0,0,0,0,0,0,0,0,0,0,0,0,0,0,0,0,0,0,0,0,0,0,0,0,0,0,0,0,0,0,0,0,0,0,0,0,0,0,0,0,0,0,0,0,0,0,0,0,0,0,0,0,0,0,0,0,0,0,0,0,0,0,0,0,0,0,0,0,0,0,0,0,0,0,0,0,0,0,0,0,0,0,0,0,0,0,0,0],"sum_hessian":[4.4412872E5,1.4549181E5,2.986369E5,1.3183288E5,1.3658938E4,1.8969061E5,1.08946305E5,1.2908443E5,2.7484365E3,1.158389E4,2.0750486E3,5.47811E3,1.842125E5,4.119771E4,6.774859E4,6.9154414E4,5.993002E4,2.4599753E3,2.884612E2,1.1407359E4,1.765307E2,1.9908658E3,8.418281E1,2.9499639E3,2.528146E3,1.8327122E5,9.412743E2,3.798401E4,3.213698E3,3.755344E4,3.0195156E4,6.880433E4,3.5008737E2,2.6533324E4,3.3396695E4,2.5899131E0,2.4573855E3,2.8202014E2,6.4410696E0,1.1300262E4,1.0709677E2,5.100754E1,1.2552316E2,1.7146089E3,2.7625693E2,3.0632656E1,5.3550148E1,1.684202E3,1.2657617E3,1.2840769E1,2.5153052E3,4.9356418E2,1.8277766E5,8.308707E2,1.10403564E2,3.754569E4,4.3832028E2,3.1858647E3,2.783323E1,2.5034037E4,1.2519405E4,2.7137502E4,3.057653E3,6.802996E4,7.7436615E2,7.233491E1,2.7775247E2,1.8880934E4,1.451576E4,5.7244806E0,1.1294538E4,4.3735497E1,6.3361275E1,7.06732E0,4.3940224E1,1.1818498E2,7.3381805E0,1.7114606E3,3.1483817E0,2.7517776E2,1.0791664E0,6.775775E0,2.385688E1,8.559593E0,4.4990555E1,1.4454297E3,2.3877238E2,8.216555E0,4.6242146E0,4.548807E2,3.8683502E1,1.8243377E5,3.4388324E2,7.430875E2,8.7783195E1,6.2998676E1,4.740489E1,3.549912E4,2.0465704E3,3.7056897E2,6.775133E1,3.7990115E0,3.1820657E3,1.8766552E1,9.066676E0,2.995362E3,2.2038674E4,5.5375916E1,1.2464029E4,2.6988182E4,1.4932146E2,2.9124705E3,1.4518251E2],"tree_param":{"num_deleted":"0","num_feature":"12","num_nodes":"113","size_leaf_vector":"1"}},{"base_weights":[1.6443582E-2,-9.9756014E-1,5.113886E-1,-1.1649506E0,7.66572E-1,1.0321546E0,-3.8257903E-1,-1.1996075E0,8.4279966E-1,1.123881E0,-1.3673337E0,-6.277573E-1,1.082366E0,-6.371409E-1,1.1563183E0,-1.3990543E0,-9.7503227E-1,1.1666253E0,-1.4045687E-1,1.1572485E0,-8.9573073E-1,-4.4305786E-1,-1.402944E0,3.472092E-2,-1.413586E-1,-1.5801601E0,1.0938171E0,-1.1234614E0,7.9244506E-1,-1.4235373E-1,1.1681999E0,-1.4075323E0,-6.89323E-1,-1.4081772E-1,-6.430184E-1,-2.1286847E-2,1.1686815E-1,1.1680018E0,9.241715E-2,-1.4466229E-1,-1.2299991E0,-1.3609627E0,1.0618821E0,-1.4084001E-1,-8.8900787E-1,-7.773494E-1,1.1785381E-1,-1.7161757E0,1.0206356E0,1.1020052E0,-1.7880533E0,-3.29135E-1,-1.2607499E0,1.1554953E0,-6.536824E-1,1.1728973E0,-1.6291912E-1,-1.4079632E-1,1.1272577E-1,-1.4367938E-1,9.907566E-2,-4.346158E-3,-1.4646174E-1,-1.482564E-1,1.16966166E-1,-1.385183E-1,1.1432282E-1,1.6775493E-2,-8.3472215E-2,-1.305683E-2,-1.4136754E-1,-1.3986848E-1,-4.4539217E-3,3.5409376E-2,1.09093904E-1,-1.3597603E-1,1.1143196E-1,-1.09301046E-1,1.15668334E-1,-1.4786084E-1,-2.1315996E-1,1.12298034E-1,-1.340554E-1,-2.632404E-1,1.1077426E-1,-1.253878E-1,-1.93768E-1,-9.879874E-2,1.1337238E-1,-1.417026E-1,-9.6442536E-2,-2.1913457E-1,1.1759537E-1,6.616148E-2,-1.1243542E-1,1.1739295E-1,-1.535696E-1],"categories":[],"categories_nodes":[],"categories_segments":[],"categories_sizes":[],"default_left":[0,0,0,0,0,0,0,0,0,0,0,0,0,0,0,0,0,0,0,0,0,0,0,0,0,0,0,0,0,0,0,0,0,0,0,0,0,0,0,0,0,0,0,0,0,0,0,0,0,0,0,0,0,0,0,0,0,0,0,0,0,0,0,0,0,0,0,0,0,0,0,0,0,0,0,0,0,0,0,0,0,0,0,0,0,0,0,0,0,0,0,0,0,0,0,0,0],"id":8,"left_children":[1,3,5,7,9,11,13,15,17,19,21,23,25,27,29,31,33,35,-1,37,39,41,43,45,-1,47,49,51,53,-1,55,57,59,-1,61,-1,-1,63,65,67,69,71,73,-1,75,77,-1,79,81,83,85,87,89,91,93,95,-1,-1,-1,-1,-1,-1,-1,-1,-1,-1,-1,-1,-1,-1,-1,-1,-1,-1,-1,-1,-1,-1,-1,-1,-1,-1,-1,-1,-1,-1,-1,-1,-1,-1,-1,-1,-1,-1,-1,-1,-1],"loss_changes":[2.0920173E5,4.0375953E4,1.30406555E5,8.69025E3,9.0364375E3,1.47533125E4,4.03939E4,5.497125E3,1.5441786E3,6.8508203E2,5.533252E1,2.7059358E3,5.239922E3,6.151273E4,4.5029492E2,3.9022656E2,8.303445E3,5.505371E0,0E0,1.1423633E2,4.13833E1,9.058574E1,3.33667E0,2.6213787E3,0E0,2.6216614E2,4.0387344E3,7.1990156E3,1.1791974E4,0E0,1.9335547E2,7.175781E1,9.676698E2,0E0,1.6103155E4,0E0,0E0,4.5228516E1,1.5828256E2,1.1376083E1,2.2922455E1,1.9498825E0,1.2804222E-1,0E0,2.028437E1,1.00885425E3,0E0,6.592676E1,1.049815E1,3.6578594E3,3.633972E1,9.379194E3,2.6053047E3,1.2317852E3,2.7911968E3,4.2464844E1,0E0,0E0,0E0,0E0,0E0,0E0,0E0,0E0,0E0,0E0,0E0,0E0,0E0,0E0,0E0,0E0,0E0,0E0,0E0,0E0,0E0,0E0,0E0,0E0,0E0,0E0,0E0,0E0,0E0,0E0,0E0,0E0,0E0,0E0,0E0,0E0,0E0,0E0,0E0,0E0,0E0],"parents":[2147483647,0,0,1,1,2,2,3,3,4,4,5,5,6,6,7,7,8,8,9,9,10,10,11,11,12,12,13,13,14,14,15,15,16,16,17,17,19,19,20,20,21,21,22,22,23,23,25,25,26,26,27,27,28,28,30,30,31,31,32,32,34,34,37,37,38,38,39,39,40,40,41,41,42,42,44,44,45,45,47,47,48,48,49,49,50,50,51,51,52,52,53,53,54,54,55,55],"right_children":[2,4,6,8,10,12,14,16,18,20,22,24,26,28,30,32,34,36,-1,38,40,42,44,46,-1,48,50,52,54,-1,56,58,60,-1,62,-1,-1,64,66,68,70,72,74,-1,76,78,-1,80,82,84,86,88,90,92,94,96,-1,-1,-1,-1,-1,-1,-1,-1,-1,-1,-1,-1,-1,-1,-1,-1,-1,-1,-1,-1,-1,-1,-1,-1,-1,-1,-1,-1,-1,-1,-1,-1,-1,-1,-1,-1,-1,-1,-1,-1,-1],"split_conditions":[7.37E2,6.4E1,2.2E1,3.2738E4,9.781729E-2,4.488421E-2,6.37E7,2.6883E4,3.3304E4,2.78E2,8E0,2.238E3,4E1,2.92E4,2.3E2,1E0,3E0,4E0,-1.4045687E-1,8E0,3.62E2,1.8181819E5,2.6883E4,6.37E7,-1.413586E-1,6.480189E3,1.68E2,3.899741E2,1.12E2,-1.4235373E-1,7.25E2,7.25E2,3.2E1,-1.4081772E-1,2.8551E4,-2.1286847E-2,1.1686815E-1,1.8E2,2.51E2,7E0,5.3475938E3,1.46E2,3E0,-1.4084001E-1,4.89E2,2.049E3,1.1785381E-1,1E0,6.1124695E2,0E0,2E2,2.6883E4,2.6883E4,1.6222536E4,1.8775067E0,3.0294952E-1,-1.6291912E-1,-1.4079632E-1,1.1272577E-1,-1.4367938E-1,9.907566E-2,-4.346158E-3,-1.4646174E-1,-1.482564E-1,1.16966166E-1,-1.385183E-1,1.1432282E-1,1.6775493E-2,-8.3472215E-2,-1.305683E-2,-1.4136754E-1,-1.3986848E-1,-4.4539217E-3,3.5409376E-2,1.09093904E-1,-1.3597603E-1,1.1143196E-1,-1.09301046E-1,1.15668334E-1,-1.4786084E-1,-2.1315996E-1,1.12298034E-1,-1.340554E-1,-2.632404E-1,1.1077426E-1,-1.253878E-1,-1.93768E-1,-9.879874E-2,1.1337238E-1,-1.417026E-1,-9.6442536E-2,-2.1913457E-1,1.1759537E-1,6.616148E-2,-1.1243542E-1,1.1739295E-1,-1.535696E-1],"split_indices":[5,0,8,4,7,6,10,4,4,4,8,4,0,4,8,2,5,10,0,1,4,6,4,10,0,7,1,7,0,0,8,8,1,0,4,0,0,4,4,5,6,5,5,0,5,4,0,3,6,11,1,4,4,7,6,6,0,0,0,0,0,0,0,0,0,0,0,0,0,0,0,0,0,0,0,0,0,0,0,0,0,0,0,0,0,0,0,0,0,0,0,0,0,0,0,0,0],"split_type":[0,0,0,0,0,0,0,0,0,0,0,0,0,0,0,0,0,0,0,0,0,0,0,0,0,0,0,0,0,0,0,0,0,0,0,0,0,0,0,0,0,0,0,0,0,0,0,0,0,0,0,0,0,0,0,0,0,0,0,0,0,0,0,0,0,0,0,0,0,0,0,0,0,0,0,0,0,0,0,0,0,0,0,0,0,0,0,0,0,0,0,0,0,0,0,0,0],"sum_hessian":[4.1683738E5,1.3672505E5,2.801123E5,1.2487643E5,1.1848616E4,1.7700239E5,1.0310994E5,1.2275784E5,2.1185857E3,1.0149603E4,1.6990131E3,5.196687E3,1.718057E5,8.847511E4,1.4634825E4,6.501359E4,5.774425E4,1.8521835E3,2.6640213E2,9.985059E3,1.645441E2,6.352952E1,1.6354835E3,2.82016E3,2.3765273E3,7.3515784E2,1.7107055E5,6.601737E4,2.2457748E4,6.654791E1,1.4568277E4,6.424517E4,7.684206E2,2.505469E4,3.2689562E4,2.6040225E0,1.8495795E3,9.885137E3,9.992172E1,5.1118523E1,1.13425575E2,3.952052E1,2.4008999E1,1.6165813E3,1.8902166E1,1.6494373E3,1.1707227E3,6.989448E2,3.621304E1,1.7058648E5,4.840597E2,9.729231E3,5.6288133E4,1.7951281E4,4.506467E3,1.4544436E4,2.3842325E1,6.4234695E4,1.0473912E1,5.319152E2,2.3650533E2,1.8899105E4,1.3790456E4,5.6282873E0,9.879509E3,4.1395355E1,5.852637E1,3.570869E1,1.5409831E1,1.6481743E1,9.694383E1,3.835886E1,1.1616592E0,1.4667609E0,2.2542238E1,1.5565705E1,3.336462E0,1.4183738E3,2.3106349E2,4.475595E2,2.513853E2,3.5211224E1,1.0018151E0,2.60975E2,1.7032552E5,1.07972435E2,3.7608725E2,6.708249E3,3.0209827E3,3.6850223E4,1.943791E4,1.0842004E2,1.7842861E4,1.1875212E3,3.3189453E3,1.4539462E4,4.973487E0],"tree_param":{"num_deleted":"0","num_feature":"12","num_nodes":"97","size_leaf_vector":"1"}},{"base_weights":[1.6585158E-2,-9.4444096E-1,5.003418E-1,-1.1068442E0,7.1264595E-1,1.0144445E0,-3.5947102E-1,-1.1464403E0,8.689011E-1,1.1037382E0,-1.3551419E0,-5.98819E-1,1.0646644E0,-1.1634762E0,9.9607974E-2,-1.3537171E0,-9.168508E-1,1.1496589E0,-1.4017408E0,1.1394248E0,-9.5238596E-1,-1.3900652E0,-5.173522E-1,3.8572513E-2,-1.3560802E0,1.0785952E0,-1.2983003E0,-1.3170744E0,1.1139786E0,-4.9741137E-1,8.689961E-1,-1.3455783E0,-2.6940932E0,-1.3545534E-1,-5.943567E-1,-1.9676695E-2,1.1514449E-1,-1.350737E-1,-2.8218544E-1,1.1496092E0,9.0131186E-2,-1.2634443E-1,-1.3145198E0,-1.3536837E0,-1.5953707E0,6.752552E-1,-1.1815263E0,-7.15905E-1,1.1574668E-1,-7.5147784E-1,-1.3590607E-1,1.0836025E0,-3.6809437E0,-1.4902885E0,-1.6453046E-1,-1.3473961E0,9.677399E-1,1.1478591E0,-1.7065959E-1,-1.2627453E0,1.1414673E0,1.176175E0,-1.3444375E0,-1.3538437E-1,-6.584078E-2,-3.002388E-1,-1.4531653E-1,3.9908346E-2,-1.0503086E-1,-1.3895664E-1,1.15120985E-1,-1.3303444E-1,1.1211147E-1,9.162583E-2,-3.0835602E-2,-1.4867353E-1,-2.7191679E-3,-1.3556875E-1,-2.6707506E-2,-1.6064239E-1,3.3811353E-2,-1.1556392E-1,1.16128445E-1,-4.5559116E-2,-1.3129072E-1,-1.095534E-1,7.857885E-2,-1.6358274E-1,9.994806E-2,-1.9406332E-1,1.0905713E-1,-5.444426E-1,1.0382485E-1,-1.5913977E-1,-6.560283E-2,9.67957E-2,-1.8770657E-1,-1.3733175E-1,-5.572219E-2,1.3277876E-1,-1.4184916E-1,1.1522255E-1,-1.4033304E-1,1.8250103E-3,-1.4469896E-1,1.1538565E-1,-1.0616715E-1,1.1925801E-1,-1.4993756E-1,-1.4203596E-1,3.7090056E-2],"categories":[],"categories_nodes":[],"categories_segments":[],"categories_sizes":[],"default_left":[0,0,0,0,0,0,0,0,0,0,0,0,0,0,0,0,0,0,0,0,0,0,0,0,0,0,0,0,0,0,0,0,0,0,0,0,0,0,0,0,0,0,0,0,0,0,0,0,0,0,0,0,0,0,0,0,0,0,0,0,0,0,0,0,0,0,0,0,0,0,0,0,0,0,0,0,0,0,0,0,0,0,0,0,0,0,0,0,0,0,0,0,0,0,0,0,0,0,0,0,0,0,0,0,0,0,0,0,0,0,0],"id":9,"left_children":[1,3,5,7,9,11,13,15,17,19,21,23,25,27,29,31,33,35,37,39,41,43,45,47,49,51,53,55,57,59,61,63,65,-1,67,-1,-1,-1,-1,69,71,73,75,77,79,81,83,85,-1,87,-1,89,91,93,95,97,99,101,-1,103,105,107,109,-1,-1,-1,-1,-1,-1,-1,-1,-1,-1,-1,-1,-1,-1,-1,-1,-1,-1,-1,-1,-1,-1,-1,-1,-1,-1,-1,-1,-1,-1,-1,-1,-1,-1,-1,-1,-1,-1,-1,-1,-1,-1,-1,-1,-1,-1,-1,-1],"loss_changes":[1.8172728E5,3.522346E4,1.1493326E5,9.326266E3,9.449395E3,1.3183703E4,3.591133E4,5.559922E3,1.4949836E3,7.220244E2,5.3661865E1,2.371432E3,5.196078E3,1.2371633E4,2.8448355E4,6.663203E2,7.8261133E3,5.241211E0,1.4891968E1,1.03106445E2,5.0138336E1,1.1163086E1,6.0973694E1,2.2536267E3,3.024414E0,3.7428906E3,2.0117517E2,2.2964297E3,2.1552173E2,4.374234E4,1.8400346E4,3.458125E2,1.3705273E2,0E0,1.4462404E4,0E0,0E0,0E0,0E0,4.047461E1,1.3904303E2,1.021864E1,2.5854965E1,2.9511719E0,6.161621E0,2.6090141E1,4.0903473E0,9.098545E2,0E0,2.2154526E1,0E0,3.3049531E3,1.3796777E3,6.569629E1,2.6388556E2,6.6890625E2,3.751632E2,2.6222412E1,0E0,5.6106914E3,3.0424805E2,1.0448125E3,4.3005957E2,0E0,0E0,0E0,0E0,0E0,0E0,0E0,0E0,0E0,0E0,0E0,0E0,0E0,0E0,0E0,0E0,0E0,0E0,0E0,0E0,0E0,0E0,0E0,0E0,0E0,0E0,0E0,0E0,0E0,0E0,0E0,0E0,0E0,0E0,0E0,0E0,0E0,0E0,0E0,0E0,0E0,0E0,0E0,0E0,0E0,0E0,0E0,0E0],"parents":[2147483647,0,0,1,1,2,2,3,3,4,4,5,5,6,6,7,7,8,8,9,9,10,10,11,11,12,12,13,13,14,14,15,15,16,16,17,17,18,18,19,19,20,20,21,21,22,22,23,23,24,24,25,25,26,26,27,27,28,28,29,29,30,30,31,31,32,32,34,34,39,39,40,40,41,41,42,42,43,43,44,44,45,45,46,46,47,47,49,49,51,51,52,52,53,53,54,54,55,55,56,56,57,57,59,59,60,60,61,61,62,62],"right_children":[2,4,6,8,10,12,14,16,18,20,22,24,26,28,30,32,34,36,38,40,42,44,46,48,50,52,54,56,58,60,62,64,66,-1,68,-1,-1,-1,-1,70,72,74,76,78,80,82,84,86,-1,88,-1,90,92,94,96,98,100,102,-1,104,106,108,110,-1,-1,-1,-1,-1,-1,-1,-1,-1,-1,-1,-1,-1,-1,-1,-1,-1,-1,-1,-1,-1,-1,-1,-1,-1,-1,-1,-1,-1,-1,-1,-1,-1,-1,-1,-1,-1,-1,-1,-1,-1,-1,-1,-1,-1,-1,-1,-1],"split_conditions":[8.1E2,6.4E1,2.2E1,3.2738E4,9.781729E-2,4.488421E-2,1.5E1,2.6883E4,3.3304E4,2.78E2,1.04E2,2.052E3,3.2511E4,6.37E7,2.6883E4,7.37E2,3E0,4E0,7.37E2,8E0,3.62E2,7.37E2,1.2E2,6.37E7,2.238E3,1E0,6E0,4.072E3,5.12E2,6.37E7,6.4E2,1E0,1.6222536E4,-1.3545534E-1,4E0,-1.9676695E-2,1.1514449E-1,-1.350737E-1,-2.8218544E-1,1.8E2,2.51E2,1.2048192E4,4.06E2,6.5535E4,8.8126844E5,1E0,1.52E2,6.4E1,1.1574668E-1,4E7,-1.3590607E-1,1.44E2,3.2E1,3.0999532E7,2.52E2,1E0,3.62E2,7.25E2,-1.7065959E-1,2.26E2,3.605E3,2.72E2,6.5285956E5,-1.3538437E-1,-6.584078E-2,-3.002388E-1,-1.4531653E-1,3.9908346E-2,-1.0503086E-1,-1.3895664E-1,1.15120985E-1,-1.3303444E-1,1.1211147E-1,9.162583E-2,-3.0835602E-2,-1.4867353E-1,-2.7191679E-3,-1.3556875E-1,-2.6707506E-2,-1.6064239E-1,3.3811353E-2,-1.1556392E-1,1.16128445E-1,-4.5559116E-2,-1.3129072E-1,-1.095534E-1,7.857885E-2,-1.6358274E-1,9.994806E-2,-1.9406332E-1,1.0905713E-1,-5.444426E-1,1.0382485E-1,-1.5913977E-1,-6.560283E-2,9.67957E-2,-1.8770657E-1,-1.3733175E-1,-5.572219E-2,1.3277876E-1,-1.4184916E-1,1.1522255E-1,-1.4033304E-1,1.8250103E-3,-1.4469896E-1,1.1538565E-1,-1.0616715E-1,1.1925801E-1,-1.4993756E-1,-1.4203596E-1,3.7090056E-2],"split_indices":[5,0,8,4,7,6,11,4,4,4,0,4,11,10,4,5,5,10,5,1,4,5,0,10,4,2,8,0,4,10,8,2,7,0,5,0,0,0,0,4,4,6,9,4,7,5,0,0,0,10,0,10,1,11,4,3,4,8,0,4,11,1,9,0,0,0,0,0,0,0,0,0,0,0,0,0,0,0,0,0,0,0,0,0,0,0,0,0,0,0,0,0,0,0,0,0,0,0,0,0,0,0,0,0,0,0,0,0,0,0,0],"split_type":[0,0,0,0,0,0,0,0,0,0,0,0,0,0,0,0,0,0,0,0,0,0,0,0,0,0,0,0,0,0,0,0,0,0,0,0,0,0,0,0,0,0,0,0,0,0,0,0,0,0,0,0,0,0,0,0,0,0,0,0,0,0,0,0,0,0,0,0,0,0,0,0,0,0,0,0,0,0,0,0,0,0,0,0,0,0,0,0,0,0,0,0,0,0,0,0,0,0,0,0,0,0,0,0,0,0,0,0,0,0,0],"sum_hessian":[3.9089106E5,1.30881734E5,2.6000933E5,1.1919985E5,1.1681883E4,1.6271684E5,9.7292484E4,1.1685831E5,2.3415427E3,9.824236E3,1.8576466E3,4.912026E3,1.5780481E5,3.5361246E4,6.193124E4,6.1410805E4,5.5447508E4,2.0843171E3,2.5722565E2,9.657071E3,1.671648E2,1.7826764E3,7.497013E1,2.667621E3,2.2444048E3,1.5688047E5,9.243454E2,3.3127457E4,2.2337903E3,3.487205E4,2.7059188E4,6.104216E4,3.6864548E2,2.3520836E4,3.192667E4,2.6165442E0,2.0817007E3,2.5019112E2,7.034534E0,9.564146E3,9.292475E1,5.1359844E1,1.1580495E2,1.5207784E3,2.6189804E2,2.6810984E1,4.815915E1,1.5934845E3,1.0741366E3,1.2251587E1,2.2321533E3,1.5671638E5,1.6410338E2,7.902184E2,1.3412701E2,3.2693984E4,4.3347208E2,2.2078625E3,2.5927643E1,2.3771373E4,1.1100677E4,2.3761982E4,3.2972043E3,6.0315707E4,7.2645215E2,2.9414822E2,7.449727E1,1.0043578E4,2.1883092E4,5.4788747E0,9.558667E3,3.8958237E1,5.396651E1,7.033921E0,4.4325924E1,1.0200418E2,1.3800768E1,1.517732E3,3.0463464E0,2.6057755E2,1.3204883E0,5.335227E0,2.1475756E1,8.064889E0,4.0094257E1,1.2721538E3,3.213307E2,8.18392E0,4.067667E0,3.5965417E2,1.5635672E5,1.19350464E2,4.4752914E1,7.0399005E2,8.622836E1,8.099823E1,5.3128777E1,3.1654824E4,1.0391602E3,3.7702765E2,5.6444435E1,2.2046377E3,3.2249157E0,2.98921E3,2.0782164E4,1.1039075E4,6.1601288E1,2.3617725E4,1.4425804E2,3.1576177E3,1.395866E2],"tree_param":{"num_deleted":"0","num_feature":"12","num_nodes":"111","size_leaf_vector":"1"}},{"base_weights":[1.6677039E-2,-9.039253E-1,4.870955E-1,-1.0570788E0,6.9950944E-1,9.915584E-1,-3.4600514E-1,-1.094327E0,8.5401815E-1,1.0867275E0,-1.3049339E0,-5.6864214E-1,1.041482E0,-1.1143417E0,9.7078316E-2,-1.3066045E0,-8.644985E-1,1.1327797E0,-1.3491414E0,1.1228431E0,-8.908745E-1,-1.3387549E0,-4.972929E-1,3.7666954E-2,-1.3103001E0,1.05533E0,-1.2217865E0,-1.2594303E0,1.0959718E0,-4.780899E-1,8.479711E-1,-1.2998463E0,-2.293992E0,-1.3096285E-1,-5.500131E-1,-1.8194107E-2,1.1346827E-1,-1.3055557E-1,-2.3733829E-1,1.132996E0,8.805411E-2,-1.11818954E-1,-1.2525433E0,-1.3420933E0,3.9715447E-2,6.53159E-1,-1.1272517E0,-6.5011615E-1,1.1391852E-1,-7.033089E-1,-1.3134046E-1,-2.3342106E0,1.0621378E0,-1.4045519E0,-1.5323505E-1,-1.2883006E0,9.327135E-1,1.1298763E0,-1.614393E-1,-1.2026774E0,1.1240819E0,1.1505793E0,-1.2853346E0,-1.3087873E-1,-5.9868097E-2,-1.2933122E-1,-2.4699965E-1,-1.0740289E-3,-1.3621268E-1,-1.3118476E-1,1.1346208E-1,-1.2839077E-1,1.1011207E-1,1.8068079E-2,-7.503292E-2,-1.4523368E-1,-1.415054E-2,-1.3105433E-1,-1.5154482E-1,-1.0403713E-1,8.92347E-2,-9.6932225E-2,1.1769389E-1,-4.1603234E-2,-1.264599E-1,-9.61691E-2,1.2595052E-1,-1.519895E-1,9.6857354E-2,-2.4679378E-1,-1.8871853E-1,1.0690129E-1,-1.9228648E-1,-1.5077357E-1,-5.9244283E-2,1.1163473E-1,-1.5002735E-1,-1.3263918E-1,-6.768682E-2,1.3019302E-1,-1.2472486E-1,-1.21943735E-1,1.13468565E-1,-1.38588E-1,7.627293E-3,-1.2917045E-1,1.1352309E-1,1.1668574E-1,-1.4170007E-1,2.9948687E-2,-1.363128E-1],"categories":[],"categories_nodes":[],"categories_segments":[],"categories_sizes":[],"default_left":[0,0,0,0,0,0,0,0,0,0,0,0,0,0,0,0,0,0,0,0,0,0,0,0,0,0,0,0,0,0,0,0,0,0,0,0,0,0,0,0,0,0,0,0,0,0,0,0,0,0,0,0,0,0,0,0,0,0,0,0,0,0,0,0,0,0,0,0,0,0,0,0,0,0,0,0,0,0,0,0,0,0,0,0,0,0,0,0,0,0,0,0,0,0,0,0,0,0,0,0,0,0,0,0,0,0,0,0,0,0,0],"id":10,"left_children":[1,3,5,7,9,11,13,15,17,19,21,23,25,27,29,31,33,35,37,39,41,43,45,47,49,51,53,55,57,59,61,63,65,-1,67,-1,-1,-1,-1,69,71,73,75,77,79,81,83,85,-1,87,-1,89,91,93,95,97,99,101,-1,103,105,107,109,-1,-1,-1,-1,-1,-1,-1,-1,-1,-1,-1,-1,-1,-1,-1,-1,-1,-1,-1,-1,-1,-1,-1,-1,-1,-1,-1,-1,-1,-1,-1,-1,-1,-1,-1,-1,-1,-1,-1,-1,-1,-1,-1,-1,-1,-1,-1,-1],"loss_changes":[1.5810605E5,3.032018E4,1.0154501E5,8.0235E3,8.356939E3,1.17225625E4,3.1023254E4,5.3921406E3,1.3251294E3,6.454346E2,4.6955322E1,2.0985981E3,4.57175E3,1.0690148E4,2.4962742E4,3.804922E2,7.430039E3,4.9941406E0,7.7278748E0,9.299902E1,4.5612442E1,7.7507324E0,5.267306E1,1.9467874E3,3.0319824E0,3.347E3,1.7306714E2,1.9807031E3,1.9053882E2,3.799712E4,1.6185406E4,3.5703906E2,6.537866E1,0E0,1.3623477E4,0E0,0E0,0E0,0E0,3.6347656E1,1.2258844E2,9.955857E0,2.4389603E1,7.140869E0,5.5445385E0,2.3227283E1,4.0331383E0,9.424564E2,0E0,1.8993937E1,0E0,1.2728516E1,2.9706094E3,6.258838E1,2.252263E2,7.181133E2,3.2933148E2,2.4306885E1,0E0,5.28076E3,2.76E2,9.1930664E2,3.8443164E2,0E0,0E0,0E0,0E0,0E0,0E0,0E0,0E0,0E0,0E0,0E0,0E0,0E0,0E0,0E0,0E0,0E0,0E0,0E0,0E0,0E0,0E0,0E0,0E0,0E0,0E0,0E0,0E0,0E0,0E0,0E0,0E0,0E0,0E0,0E0,0E0,0E0,0E0,0E0,0E0,0E0,0E0,0E0,0E0,0E0,0E0,0E0,0E0],"parents":[2147483647,0,0,1,1,2,2,3,3,4,4,5,5,6,6,7,7,8,8,9,9,10,10,11,11,12,12,13,13,14,14,15,15,16,16,17,17,18,18,19,19,20,20,21,21,22,22,23,23,24,24,25,25,26,26,27,27,28,28,29,29,30,30,31,31,32,32,34,34,39,39,40,40,41,41,42,42,43,43,44,44,45,45,46,46,47,47,49,49,51,51,52,52,53,53,54,54,55,55,56,56,57,57,59,59,60,60,61,61,62,62],"right_children":[2,4,6,8,10,12,14,16,18,20,22,24,26,28,30,32,34,36,38,40,42,44,46,48,50,52,54,56,58,60,62,64,66,-1,68,-1,-1,-1,-1,70,72,74,76,78,80,82,84,86,-1,88,-1,90,92,94,96,98,100,102,-1,104,106,108,110,-1,-1,-1,-1,-1,-1,-1,-1,-1,-1,-1,-1,-1,-1,-1,-1,-1,-1,-1,-1,-1,-1,-1,-1,-1,-1,-1,-1,-1,-1,-1,-1,-1,-1,-1,-1,-1,-1,-1,-1,-1,-1,-1,-1,-1,-1,-1,-1],"split_conditions":[8.1E2,6.4E1,2.2E1,3.2738E4,9.781729E-2,4.488421E-2,1.5E1,2.6883E4,3.3304E4,2.78E2,1.04E2,2.052E3,3.2511E4,6.37E7,2.6883E4,7.37E2,3E0,4E0,7.37E2,8E0,3.62E2,6.5535E4,1.2E2,6.37E7,2.238E3,0E0,6E0,4.072E3,5.12E2,6.37E7,6.4E2,1E0,6.4E1,-1.3096285E-1,2.8551E4,-1.8194107E-2,1.1346827E-1,-1.3055557E-1,-2.3733829E-1,1.8E2,2.51E2,7E0,3.42E2,7.37E2,8E0,2.8399272E5,1.52E2,2.049E3,1.1391852E-1,4E7,-1.3134046E-1,7.0921987E3,2E2,3.0999532E7,3.29374E5,2.92E4,3.3E1,2.3E2,-1.614393E-1,1E0,1.16E2,2.72E2,1.8775067E0,-1.3087873E-1,-5.9868097E-2,-1.2933122E-1,-2.4699965E-1,-1.0740289E-3,-1.3621268E-1,-1.3118476E-1,1.1346208E-1,-1.2839077E-1,1.1011207E-1,1.8068079E-2,-7.503292E-2,-1.4523368E-1,-1.415054E-2,-1.3105433E-1,-1.5154482E-1,-1.0403713E-1,8.92347E-2,-9.6932225E-2,1.1769389E-1,-4.1603234E-2,-1.264599E-1,-9.61691E-2,1.2595052E-1,-1.519895E-1,9.6857354E-2,-2.4679378E-1,-1.8871853E-1,1.0690129E-1,-1.9228648E-1,-1.5077357E-1,-5.9244283E-2,1.1163473E-1,-1.5002735E-1,-1.3263918E-1,-6.768682E-2,1.3019302E-1,-1.2472486E-1,-1.21943735E-1,1.13468565E-1,-1.38588E-1,7.627293E-3,-1.2917045E-1,1.1352309E-1,1.1668574E-1,-1.4170007E-1,2.9948687E-2,-1.363128E-1],"split_indices":[5,0,8,4,7,6,11,4,4,4,0,4,11,10,4,5,5,10,5,1,4,4,0,10,4,11,8,0,4,10,8,2,10,0,4,0,0,0,0,4,4,5,9,5,1,7,0,4,0,10,0,6,1,11,10,4,8,8,0,3,0,1,6,0,0,0,0,0,0,0,0,0,0,0,0,0,0,0,0,0,0,0,0,0,0,0,0,0,0,0,0,0,0,0,0,0,0,0,0,0,0,0,0,0,0,0,0,0,0,0,0],"split_type":[0,0,0,0,0,0,0,0,0,0,0,0,0,0,0,0,0,0,0,0,0,0,0,0,0,0,0,0,0,0,0,0,0,0,0,0,0,0,0,0,0,0,0,0,0,0,0,0,0,0,0,0,0,0,0,0,0,0,0,0,0,0,0,0,0,0,0,0,0,0,0,0,0,0,0,0,0,0,0,0,0,0,0,0,0,0,0,0,0,0,0,0,0,0,0,0,0,0,0,0,0,0,0,0,0,0,0,0,0,0,0],"sum_hessian":[3.6508134E5,1.23463695E5,2.4161764E5,1.12699445E5,1.076425E4,1.5049128E5,9.112636E4,1.105453E5,2.1541538E3,9.021865E3,1.7423849E3,4.6658228E3,1.4582547E5,3.3329406E4,5.779695E4,5.7464457E4,5.3080836E4,1.9126372E3,2.4151648E2,8.860484E3,1.6138103E2,1.6717219E3,7.066291E1,2.5676804E3,2.0981423E3,1.4493917E5,8.862883E2,3.1276777E4,2.0526274E3,3.2728197E4,2.5068754E4,5.7076113E4,3.883453E2,2.1974479E4,3.110636E4,2.6276681E0,1.9100095E3,2.3384027E2,7.676212E0,8.774301E3,8.618304E1,5.158124E1,1.0979979E2,1.6677094E3,4.012581E0,2.4989473E1,4.5673443E1,1.5809513E3,9.867292E2,1.183427E1,2.086308E3,2.8983652E2,1.4464934E5,7.565699E2,1.2971838E2,3.0870627E4,4.0615176E2,2.027844E3,2.4783537E1,2.253632E4,1.0191876E4,2.1954922E4,3.113833E3,5.63566E4,7.1951013E2,5.9336086E1,3.2900922E2,1.8693926E4,1.2412433E4,5.291891E0,8.76901E3,3.6493618E1,4.968942E1,3.5867477E1,1.5713762E1,9.280403E1,1.6995758E1,1.4181672E3,2.4954219E2,1.6730391E0,2.339542E0,5.890914E0,1.9098558E1,8.044746E0,3.7628696E1,1.3596125E3,2.2133873E2,8.011953E0,3.8223162E0,2.1961739E2,7.021913E1,1.443176E5,3.317521E2,6.7051953E2,8.605039E1,6.6867294E1,6.2851097E1,2.9059123E4,1.8115032E3,3.476702E2,5.848157E1,3.6268291E0,2.0242172E3,1.9712525E4,2.8237954E3,4.629268E1,1.0145583E4,2.181715E4,1.3777171E2,1.4556215E2,2.9682708E3],"tree_param":{"num_deleted":"0","num_feature":"12","num_nodes":"111","size_leaf_vector":"1"}},{"base_weights":[1.6589945E-2,-8.6771965E-1,4.7505525E-1,-1.0126312E0,6.8793476E-1,9.706658E-1,-3.340955E-1,-1.266595E0,-7.54663E-1,1.0716174E0,-1.2626932E0,-5.4556113E-1,1.0200928E0,-5.54881E-1,1.1037613E0,-1.2762464E0,-5.6345254E-1,-1.2716123E-1,-4.269888E-1,1.1082425E0,-8.366554E-1,-1.2957648E0,-4.7869837E-1,3.7471395E-2,-1.2715651E0,-1.4257518E0,1.0326493E0,-9.6544325E-1,7.2909474E-1,-1.2954341E-1,1.1157122E0,-1.2706273E0,-2.042956E0,9.699039E-1,-1.3554493E-1,7.03109E-2,-1.3162501E0,1.1183716E0,8.614872E-2,-1.015222E-1,-1.1975687E0,-1.2990788E0,3.4547832E-2,6.3389474E-1,-1.0781392E0,-6.0559523E-1,1.1230221E-1,-6.626193E-1,-1.2747821E-1,-1.5614892E0,1.0402007E0,1.0614606E0,5.9294067E-2,-2.7059165E-1,-1.093518E0,1.1015534E0,-5.749854E-1,1.1210803E0,-1.5643041E-1,-1.2711842E-1,1.1717584E-1,-1.2547466E-1,-2.172205E-1,-2.1500559E-1,1.3178252E-1,-2.1639137E-2,9.739849E-2,-1.830507E-1,-1.3137296E-1,-1.2456945E-1,1.12002134E-1,-1.24410726E-1,1.0828721E-1,9.049575E-2,-2.7606819E-2,-1.4030075E-1,-1.2819814E-2,-1.2723331E-1,-1.4422247E-1,-9.906232E-2,8.621786E-2,-1.0766663E-1,1.1112173E-1,-1.1876345E-1,-1.5943876E-2,-9.8006435E-2,8.06084E-2,-1.4258997E-1,9.397047E-2,-1.7324738E-1,-1.2314417E-1,1.11712635E-1,-8.090519E-2,1.067266E-1,-2.9311845E-1,-6.298377E-1,5.2129317E-2,-7.706701E-2,1.0653466E-1,-1.251857E-1,-8.085519E-2,-1.923E-1,1.1247438E-1,5.6124907E-2,-9.634738E-2,1.1221539E-1,-1.3013358E-1],"categories":[],"categories_nodes":[],"categories_segments":[],"categories_sizes":[],"default_left":[0,0,0,0,0,0,0,0,0,0,0,0,0,0,0,0,0,0,0,0,0,0,0,0,0,0,0,0,0,0,0,0,0,0,0,0,0,0,0,0,0,0,0,0,0,0,0,0,0,0,0,0,0,0,0,0,0,0,0,0,0,0,0,0,0,0,0,0,0,0,0,0,0,0,0,0,0,0,0,0,0,0,0,0,0,0,0,0,0,0,0,0,0,0,0,0,0,0,0,0,0,0,0,0,0,0,0],"id":11,"left_children":[1,3,5,7,9,11,13,15,17,19,21,23,25,27,29,31,33,-1,35,37,39,41,43,45,47,49,51,53,55,-1,57,59,61,63,-1,65,67,69,71,73,75,77,79,81,83,85,-1,87,-1,89,91,93,95,97,99,101,103,105,-1,-1,-1,-1,-1,-1,-1,-1,-1,-1,-1,-1,-1,-1,-1,-1,-1,-1,-1,-1,-1,-1,-1,-1,-1,-1,-1,-1,-1,-1,-1,-1,-1,-1,-1,-1,-1,-1,-1,-1,-1,-1,-1,-1,-1,-1,-1,-1,-1],"loss_changes":[1.3795448E5,2.6191242E4,8.986646E4,6.9619062E3,7.4112256E3,1.0415422E4,2.7023111E4,3.6271875E2,8.930855E3,5.7919434E2,4.158496E1,1.8573834E3,4.1347188E3,3.890003E4,3.2633398E2,2.25E2,8.84106E2,0E0,1.4272002E4,8.3953125E1,4.1368683E1,6.9282227E0,4.5683094E1,1.7001962E3,2.9836426E0,2.3185205E2,3.7549062E3,4.975586E3,8.68484E3,0E0,1.6396973E2,7.2828125E1,3.6263306E1,2.722209E2,0E0,5.3629634E3,1.2599609E1,3.275E1,1.0841128E2,9.487977E0,2.2842041E1,4.1279297E0,4.972533E0,2.0999643E1,4.258713E0,8.0934E2,0E0,1.644801E1,0E0,3.467981E1,6.094063E0,3.0175E3,1.1313067E4,5.815265E3,2.1292031E3,9.776387E2,1.7541388E3,3.0726562E1,0E0,0E0,0E0,0E0,0E0,0E0,0E0,0E0,0E0,0E0,0E0,0E0,0E0,0E0,0E0,0E0,0E0,0E0,0E0,0E0,0E0,0E0,0E0,0E0,0E0,0E0,0E0,0E0,0E0,0E0,0E0,0E0,0E0,0E0,0E0,0E0,0E0,0E0,0E0,0E0,0E0,0E0,0E0,0E0,0E0,0E0,0E0,0E0,0E0],"parents":[2147483647,0,0,1,1,2,2,3,3,4,4,5,5,6,6,7,7,8,8,9,9,10,10,11,11,12,12,13,13,14,14,15,15,16,16,18,18,19,19,20,20,21,21,22,22,23,23,24,24,25,25,26,26,27,27,28,28,30,30,31,31,32,32,33,33,35,35,36,36,37,37,38,38,39,39,40,40,41,41,42,42,43,43,44,44,45,45,47,47,49,49,50,50,51,51,52,52,53,53,54,54,55,55,56,56,57,57],"right_children":[2,4,6,8,10,12,14,16,18,20,22,24,26,28,30,32,34,-1,36,38,40,42,44,46,48,50,52,54,56,-1,58,60,62,64,-1,66,68,70,72,74,76,78,80,82,84,86,-1,88,-1,90,92,94,96,98,100,102,104,106,-1,-1,-1,-1,-1,-1,-1,-1,-1,-1,-1,-1,-1,-1,-1,-1,-1,-1,-1,-1,-1,-1,-1,-1,-1,-1,-1,-1,-1,-1,-1,-1,-1,-1,-1,-1,-1,-1,-1,-1,-1,-1,-1,-1,-1,-1,-1,-1,-1],"split_conditions":[8.1E2,6.4E1,2.2E1,2.6883E4,9.781729E-2,4.488421E-2,6.37E7,1E0,3E0,2.78E2,1.04E2,2.052E3,4E1,2.92E4,2.3E2,7.37E2,4E1,-1.2716123E-1,9.781729E-2,8E0,3.62E2,6.5535E4,1.2E2,6.37E7,2.238E3,6.480189E3,1.04E2,3.899741E2,1.12E2,-1.2954341E-1,7.25E2,7.25E2,6.4E1,2.4E1,-1.3554493E-1,2.1E1,4E0,1.8E2,2.51E2,1.2048192E4,3.42E2,7.37E2,8E0,1E0,6.666667E5,6.4E1,1.1230221E-1,4E7,-1.2747821E-1,1.2575E4,5.882353E2,1E0,1.12E2,2.6883E4,2.6883E4,1.6222536E4,1.8775067E0,3.0294952E-1,-1.5643041E-1,-1.2711842E-1,1.1717584E-1,-1.2547466E-1,-2.172205E-1,-2.1500559E-1,1.3178252E-1,-2.1639137E-2,9.739849E-2,-1.830507E-1,-1.3137296E-1,-1.2456945E-1,1.12002134E-1,-1.24410726E-1,1.0828721E-1,9.049575E-2,-2.7606819E-2,-1.4030075E-1,-1.2819814E-2,-1.2723331E-1,-1.4422247E-1,-9.906232E-2,8.621786E-2,-1.0766663E-1,1.1112173E-1,-1.1876345E-1,-1.5943876E-2,-9.8006435E-2,8.06084E-2,-1.4258997E-1,9.397047E-2,-1.7324738E-1,-1.2314417E-1,1.11712635E-1,-8.090519E-2,1.067266E-1,-2.9311845E-1,-6.298377E-1,5.2129317E-2,-7.706701E-2,1.0653466E-1,-1.251857E-1,-8.085519E-2,-1.923E-1,1.1247438E-1,5.6124907E-2,-9.634738E-2,1.1221539E-1,-1.3013358E-1],"split_indices":[5,0,8,4,7,6,10,2,5,4,0,4,0,4,8,5,0,0,7,1,4,4,0,10,4,7,0,7,0,0,8,8,10,0,0,5,5,4,4,6,9,5,1,5,6,0,0,10,0,11,6,2,0,4,4,7,6,6,0,0,0,0,0,0,0,0,0,0,0,0,0,0,0,0,0,0,0,0,0,0,0,0,0,0,0,0,0,0,0,0,0,0,0,0,0,0,0,0,0,0,0,0,0,0,0,0,0],"split_type":[0,0,0,0,0,0,0,0,0,0,0,0,0,0,0,0,0,0,0,0,0,0,0,0,0,0,0,0,0,0,0,0,0,0,0,0,0,0,0,0,0,0,0,0,0,0,0,0,0,0,0,0,0,0,0,0,0,0,0,0,0,0,0,0,0,0,0,0,0,0,0,0,0,0,0,0,0,0,0,0,0,0,0,0,0,0,0,0,0,0,0,0,0,0,0,0,0,0,0,0,0,0,0,0,0,0,0],"sum_hessian":[3.4026903E5,1.1617818E5,2.2409086E5,1.0627852E5,9.899659E3,1.3897034E5,8.5120516E4,5.3552957E4,5.2725562E4,8.272862E3,1.6267964E3,4.3869194E3,1.3458342E5,7.379047E4,1.1330044E4,5.2827027E4,7.2592834E2,2.0453922E4,3.2271643E4,8.1174844E3,1.553786E2,1.560324E3,6.647247E1,2.4335527E3,1.9533667E3,6.86818E2,1.3389661E5,5.5912285E4,1.7878186E4,5.5625206E1,1.1274419E4,5.2445316E4,3.81713E2,2.4716887E2,4.787595E2,2.0697783E4,1.1573857E4,8.037736E3,7.97484E1,5.1585987E1,1.0379262E2,1.55647E3,3.853999E0,2.3254128E1,4.321834E1,1.5285192E3,9.0503345E2,1.1353072E1,1.9420137E3,6.5133246E2,3.5485577E1,1.30047125E5,3.8494822E3,8.702296E3,4.7209992E4,1.3906501E4,3.9716846E3,1.1252462E4,2.1957178E1,5.243384E4,1.147615E1,5.528309E1,3.264299E2,2.4277992E1,2.2289087E2,1.5713298E4,4.9844863E3,5.2913624E1,1.1520944E4,5.079632E0,8.0326562E3,3.4052605E1,4.5695797E1,7.0055337E0,4.4580452E1,8.680445E1,1.6988167E1,1.3197694E3,2.3670056E2,1.6335776E0,2.2204213E0,4.7993298E0,1.8454798E1,3.8354347E1,4.863997E0,1.2083041E3,3.202151E2,7.764495E0,3.5885768E0,4.2625668E2,2.2507574E2,3.4448486E1,1.0370916E0,1.2985904E5,1.8808505E2,2.5992764E2,3.5895544E3,6.332347E3,2.3699485E3,3.0345424E4,1.6864568E4,1.0519127E2,1.380131E4,1.0118432E3,2.9598413E3,1.1248014E4,4.448102E0],"tree_param":{"num_deleted":"0","num_feature":"12","num_nodes":"107","size_leaf_vector":"1"}},{"base_weights":[1.6653545E-2,-8.3407855E-1,4.620624E-1,-9.713447E-1,6.776611E-1,9.500344E-1,-3.1947944E-1,-1.233332E0,-7.1309376E-1,1.0581079E0,-1.2266264E0,-5.2010685E-1,9.9917454E-1,-1.011037E0,1.2318016E-1,-1.2428817E0,-5.4371315E-1,-1.2391689E-1,-3.9580986E-1,1.0953407E0,-7.849959E-1,-1.2592771E0,-4.610093E-1,3.641655E-2,-1.2385045E0,1.01407E0,-1.1872548E0,-1.1613585E0,1.0736754E0,-4.456158E-1,8.636317E-1,-1.2381113E0,-1.8490773E0,9.32154E-1,-1.3107592E-1,6.3621394E-2,-1.2772807E0,1.1054538E0,8.438422E-2,-4.2414683E-1,-1.5047631E0,-1.262588E0,3.0004406E-2,6.1379004E-1,-1.0313641E0,-5.51945E-1,1.10866144E-1,-6.2757707E-1,-1.2418278E-1,1.0427506E0,8.7423004E-2,-1.3500141E0,-2.3224896E-1,-1.191031E0,9.767667E-1,1.1023172E0,-1.5460818E-1,7.3537844E-1,-1.3166307E0,1.1254003E0,-1.198289E0,-1.2386578E-1,1.137386E-1,-1.2214132E-1,-1.9432168E-1,-1.9585629E-1,1.2743548E-1,-1.9375479E-2,8.953027E-2,-1.6924529E-1,-1.2751235E-1,-1.1884691E-1,1.1071298E-1,-1.2096198E-1,1.0660564E-1,4.6487143E-3,-8.378107E-2,-1.3102685E-1,-2.1993081E-1,-1.2397138E-1,-1.3820142E-1,-9.458493E-2,8.33891E-2,-8.9761116E-2,1.1348442E-1,-3.0893272E-2,-1.1884153E-1,-8.562829E-2,1.2521373E-1,-1.3479722E-1,9.125382E-2,-1.3836479E-1,1.0522833E-1,-4.2927352E-1,5.5800773E-2,-1.4670515E-1,-4.4891547E-2,8.240694E-2,-1.6871336E-1,-1.2427974E-1,-4.5025527E-2,1.2844275E-1,-1.2864004E-1,1.1065551E-1,-1.2886132E-1,-1.3812762E-1,1.1368579E-1,-1.5374815E-1,-1.2572235E-1,-1.14734165E-1,1.14497125E-1,-1.281703E-1,2.487858E-2],"categories":[],"categories_nodes":[],"categories_segments":[],"categories_sizes":[],"default_left":[0,0,0,0,0,0,0,0,0,0,0,0,0,0,0,0,0,0,0,0,0,0,0,0,0,0,0,0,0,0,0,0,0,0,0,0,0,0,0,0,0,0,0,0,0,0,0,0,0,0,0,0,0,0,0,0,0,0,0,0,0,0,0,0,0,0,0,0,0,0,0,0,0,0,0,0,0,0,0,0,0,0,0,0,0,0,0,0,0,0,0,0,0,0,0,0,0,0,0,0,0,0,0,0,0,0,0,0,0,0,0,0,0],"id":12,"left_children":[1,3,5,7,9,11,13,15,17,19,21,23,25,27,29,31,33,-1,35,37,39,41,43,45,47,49,51,53,55,57,59,61,63,65,-1,67,69,71,73,75,77,79,81,83,85,87,-1,89,-1,91,93,95,97,99,101,103,-1,105,107,109,111,-1,-1,-1,-1,-1,-1,-1,-1,-1,-1,-1,-1,-1,-1,-1,-1,-1,-1,-1,-1,-1,-1,-1,-1,-1,-1,-1,-1,-1,-1,-1,-1,-1,-1,-1,-1,-1,-1,-1,-1,-1,-1,-1,-1,-1,-1,-1,-1,-1,-1,-1,-1],"loss_changes":[1.2041604E5,2.2661695E4,7.954667E4,6.7726953E3,6.5875015E3,9.277031E3,2.4543424E4,3.2660156E2,8.415209E3,5.208701E2,3.7272705E1,1.6607968E3,4.0479062E3,9.806912E3,2.0589037E4,1.3945312E2,7.7165E2,0E0,1.273741E4,7.584961E1,3.8484283E1,6.2348633E0,3.9567856E1,1.4778701E3,2.9023438E0,3.2798438E3,1.3044495E2,1.8528477E3,1.5965283E2,2.844122E4,1.1464549E4,6.457031E1,2.0120483E1,2.3330237E2,0E0,4.426119E3,7.4960938E0,2.959082E1,9.612068E1,1.9842676E1,3.8600082E0,2.2424316E0,4.4721847E0,1.8853058E1,4.383053E0,8.315912E2,0E0,1.4357849E1,0E0,2.7703281E3,7.6417134E3,7.5119995E1,1.9149739E2,1.1033555E3,2.8020053E2,2.2529785E1,0E0,9.974975E3,2.0683984E2,8.3958594E2,2.8916943E2,0E0,0E0,0E0,0E0,0E0,0E0,0E0,0E0,0E0,0E0,0E0,0E0,0E0,0E0,0E0,0E0,0E0,0E0,0E0,0E0,0E0,0E0,0E0,0E0,0E0,0E0,0E0,0E0,0E0,0E0,0E0,0E0,0E0,0E0,0E0,0E0,0E0,0E0,0E0,0E0,0E0,0E0,0E0,0E0,0E0,0E0,0E0,0E0,0E0,0E0,0E0,0E0],"parents":[2147483647,0,0,1,1,2,2,3,3,4,4,5,5,6,6,7,7,8,8,9,9,10,10,11,11,12,12,13,13,14,14,15,15,16,16,18,18,19,19,20,20,21,21,22,22,23,23,24,24,25,25,26,26,27,27,28,28,29,29,30,30,31,31,32,32,33,33,35,35,36,36,37,37,38,38,39,39,40,40,41,41,42,42,43,43,44,44,45,45,47,47,49,49,50,50,51,51,52,52,53,53,54,54,55,55,57,57,58,58,59,59,60,60],"right_children":[2,4,6,8,10,12,14,16,18,20,22,24,26,28,30,32,34,-1,36,38,40,42,44,46,48,50,52,54,56,58,60,62,64,66,-1,68,70,72,74,76,78,80,82,84,86,88,-1,90,-1,92,94,96,98,100,102,104,-1,106,108,110,112,-1,-1,-1,-1,-1,-1,-1,-1,-1,-1,-1,-1,-1,-1,-1,-1,-1,-1,-1,-1,-1,-1,-1,-1,-1,-1,-1,-1,-1,-1,-1,-1,-1,-1,-1,-1,-1,-1,-1,-1,-1,-1,-1,-1,-1,-1,-1,-1,-1,-1,-1,-1],"split_conditions":[8.1E2,6.4E1,2.2E1,2.6883E4,9.781729E-2,4.488421E-2,1.6E1,1E0,3E0,2.78E2,1.04E2,2.052E3,3.2511E4,6.37E7,2.6883E4,7.37E2,4E1,-1.2391689E-1,9.781729E-2,8E0,8E0,6.5535E4,1.2E2,6.37E7,2.238E3,1.04E2,6E0,4.072E3,5.12E2,3.62E2,6.4E2,7.25E2,6.4E1,2.4E1,-1.3107592E-1,2.1E1,4E0,1.8E2,2.51E2,3.62E2,7.37E2,7.37E2,8E0,2.8399272E5,1.52E2,2.049E3,1.10866144E-1,4E7,-1.2418278E-1,4E1,1.16E2,3.0999532E7,2.52E2,2.92E4,3.62E2,7.25E2,-1.5460818E-1,1.36E2,3.26E2,2.3E2,6.5285956E5,-1.2386578E-1,1.137386E-1,-1.2214132E-1,-1.9432168E-1,-1.9585629E-1,1.2743548E-1,-1.9375479E-2,8.953027E-2,-1.6924529E-1,-1.2751235E-1,-1.1884691E-1,1.1071298E-1,-1.2096198E-1,1.0660564E-1,4.6487143E-3,-8.378107E-2,-1.3102685E-1,-2.1993081E-1,-1.2397138E-1,-1.3820142E-1,-9.458493E-2,8.33891E-2,-8.9761116E-2,1.1348442E-1,-3.0893272E-2,-1.1884153E-1,-8.562829E-2,1.2521373E-1,-1.3479722E-1,9.125382E-2,-1.3836479E-1,1.0522833E-1,-4.2927352E-1,5.5800773E-2,-1.4670515E-1,-4.4891547E-2,8.240694E-2,-1.6871336E-1,-1.2427974E-1,-4.5025527E-2,1.2844275E-1,-1.2864004E-1,1.1065551E-1,-1.2886132E-1,-1.3812762E-1,1.1368579E-1,-1.5374815E-1,-1.2572235E-1,-1.14734165E-1,1.14497125E-1,-1.281703E-1,2.487858E-2],"split_indices":[5,0,8,4,7,6,11,2,5,4,0,4,11,10,4,5,0,0,7,1,1,4,0,10,4,0,8,0,4,4,8,8,10,0,0,5,5,4,4,4,5,5,1,7,0,4,0,10,0,0,0,11,4,4,4,8,0,1,8,8,9,0,0,0,0,0,0,0,0,0,0,0,0,0,0,0,0,0,0,0,0,0,0,0,0,0,0,0,0,0,0,0,0,0,0,0,0,0,0,0,0,0,0,0,0,0,0,0,0,0,0,0,0],"split_type":[0,0,0,0,0,0,0,0,0,0,0,0,0,0,0,0,0,0,0,0,0,0,0,0,0,0,0,0,0,0,0,0,0,0,0,0,0,0,0,0,0,0,0,0,0,0,0,0,0,0,0,0,0,0,0,0,0,0,0,0,0,0,0,0,0,0,0,0,0,0,0,0,0,0,0,0,0,0,0,0,0,0,0,0,0,0,0,0,0,0,0,0,0,0,0,0,0,0,0,0,0,0,0,0,0,0,0,0,0,0,0,0,0],"sum_hessian":[3.1778247E5,1.09203195E5,2.0857927E5,1.0011326E5,9.0899375E3,1.2840605E5,8.017322E4,4.9695242E4,5.041801E4,7.5766797E3,1.5132573E3,4.152903E3,1.2425315E5,3.1289312E4,4.8883906E4,4.9015688E4,6.795554E2,1.8966895E4,3.1451117E4,7.4270503E3,1.4962924E2,1.4507439E3,6.2513428E1,2.3406294E3,1.8122734E3,1.2341291E5,8.402377E2,2.9185305E4,2.1040095E3,2.7646766E4,2.123714E4,4.8636E4,3.7968845E2,2.3232515E2,4.472303E2,2.0675678E4,1.0775438E4,7.353397E3,7.36533E1,1.0072229E2,4.890696E1,1.4470485E3,3.6954284E0,2.1646238E1,4.0867188E1,1.5116455E3,8.289839E2,1.0832242E1,1.8014412E3,1.1970773E5,3.7051843E3,7.175362E2,1.2270149E2,2.8786256E4,3.9904742E2,2.0818281E3,2.2181412E1,1.173527E4,1.5911496E4,1.8845135E4,2.392006E3,4.862529E4,1.071036E1,5.134252E1,3.2834595E2,2.4091389E1,2.0823376E2,1.5789995E4,4.8856826E3,5.1649822E1,1.0723788E4,4.8516936E0,7.3485454E3,3.16721E1,4.1981197E1,4.7531887E1,5.31904E1,4.046265E1,8.444311E0,1.2239916E3,2.2305695E2,1.5894133E0,2.106015E0,5.3641057E0,1.6282133E1,7.827583E0,3.3039604E1,1.293898E3,2.1774756E2,7.465148E0,3.3670943E0,4.6789615E2,1.1923983E5,3.586628E2,3.3465217E3,6.344976E2,8.303856E1,7.133925E1,5.1362247E1,2.6905393E4,1.8808641E3,3.5167258E2,4.7374825E1,2.078681E3,3.1472383E0,1.8706271E3,9.864643E3,3.3675398E3,1.2543956E4,1.604009E2,1.8684732E4,2.2617463E3,1.3025987E2],"tree_param":{"num_deleted":"0","num_feature":"12","num_nodes":"113","size_leaf_vector":"1"}},{"base_weights":[1.6529337E-2,-7.969147E-1,4.5561823E-1,-9.3143886E-1,6.2165904E-1,9.356042E-1,-3.0554852E-1,-1.2144041E0,-6.625207E-1,1.0412291E0,-1.2220346E0,-5.0057477E-1,9.8475206E-1,5.453669E-3,-1.2314132E0,-1.204425E0,-5.5091023E0,-1.2112832E-1,-3.5177556E-1,1.0849733E0,-9.6239144E-1,-1.2515079E0,-4.3418342E-1,3.6197886E-2,-1.2100769E0,9.996903E-1,-1.1285597E0,-1.1220726E0,5.881809E-1,-7.1820176E-1,-1.2476149E0,-1.2138752E0,-5.273601E-1,-1.5677334E0,-8.778524E0,7.35843E-2,-1.2441373E0,1.0945678E0,8.4004045E-2,-6.3417625E-1,-3.03897E0,-1.2553002E0,1.6702032E-1,6.244642E-1,-1.0055805E0,-5.151338E-1,1.0958405E-1,-5.968817E-1,-1.21350385E-1,1.0298245E0,9.404684E-2,-1.2858673E0,-2.1824127E-1,-1.2207615E0,1.0748836E0,-1.1168907E0,9.423626E-1,-1.2288824E0,3.865642E-2,-1.2482864E0,1.08595386E-1,-1.2101475E-1,-1.6274667E-1,8.995605E-2,-1.2730907E-1,-1.1384728E-1,-1.7309122E-1,-1.0330743E0,-1.5680803E-1,-1.7360743E-2,8.392934E-2,-1.5839034E-1,-1.2422762E-1,-1.13824666E-1,1.0961839E-1,-1.1794313E-1,1.0505259E-1,-8.760184E-3,-9.643647E-2,-1.9337305E-1,-3.78863E-1,-1.21166304E-1,-1.3584208E-1,-9.052355E-2,8.747589E-2,-1.0112335E-1,1.07282415E-1,-3.5444867E-2,-1.2107047E-1,-8.882912E-2,8.1190996E-2,-1.2821224E-1,8.86804E-2,1.0353011E-1,-3.4224397E-1,1.0256974E-1,-1.6310212E-1,-1.4064336E-1,-4.0692568E-2,1.1026322E-1,-1.2806322E-1,-1.4673613E-1,-1.2156465E-1,-1.8528834E-1,1.10417835E-1,-8.72793E-3,-1.4234744E-1,1.033619E-1,-1.2912174E-1,-1.2586562E-1,9.092009E-2,1.3454315E-1,-1.09939694E-1,-1.4514823E-1,-1.2410952E-1],"categories":[],"categories_nodes":[],"categories_segments":[],"categories_sizes":[],"default_left":[0,0,0,0,0,0,0,0,0,0,0,0,0,0,0,0,0,0,0,0,0,0,0,0,0,0,0,0,0,0,0,0,0,0,0,0,0,0,0,0,0,0,0,0,0,0,0,0,0,0,0,0,0,0,0,0,0,0,0,0,0,0,0,0,0,0,0,0,0,0,0,0,0,0,0,0,0,0,0,0,0,0,0,0,0,0,0,0,0,0,0,0,0,0,0,0,0,0,0,0,0,0,0,0,0,0,0,0,0,0,0,0,0,0,0],"id":13,"left_children":[1,3,5,7,9,11,13,15,17,19,21,23,25,27,29,31,33,-1,35,37,39,41,43,45,47,49,51,53,55,57,59,61,63,65,67,69,71,73,75,77,79,81,83,85,87,89,-1,91,-1,93,95,97,99,101,103,105,107,109,111,113,-1,-1,-1,-1,-1,-1,-1,-1,-1,-1,-1,-1,-1,-1,-1,-1,-1,-1,-1,-1,-1,-1,-1,-1,-1,-1,-1,-1,-1,-1,-1,-1,-1,-1,-1,-1,-1,-1,-1,-1,-1,-1,-1,-1,-1,-1,-1,-1,-1,-1,-1,-1,-1,-1,-1],"loss_changes":[1.0553157E5,1.9766531E4,7.01053E4,7.1982188E3,6.941749E3,8.30682E3,2.136779E4,1.9689922E3,8.271654E3,6.416904E2,3.80896E1,1.4832319E3,3.593211E3,3.649897E4,1.5425E2,2.9364062E2,1.3596853E3,0E0,1.1756585E4,6.861035E1,1.0487627E2,8.83374E0,3.7846012E1,1.296414E3,2.800537E0,3.0834062E3,1.1415454E2,4.10509E3,2.211791E4,2.2166623E2,2.9695312E1,6.7953125E1,6.767075E2,1.4997406E0,6.3340625E2,3.9703691E3,4.3554688E0,2.6816406E1,8.549902E1,2.45644E1,1.0175995E1,5.5498047E0,4.7054935E0,1.7354614E1,4.959095E0,7.235454E2,0E0,1.2615667E1,0E0,2.669789E3,5.8509927E3,7.161243E1,1.6833359E2,2.1064453E1,7.187982E1,1.988375E3,6.1823477E3,2.2941284E1,3.464742E2,2.4617188E1,0E0,0E0,0E0,0E0,0E0,0E0,0E0,0E0,0E0,0E0,0E0,0E0,0E0,0E0,0E0,0E0,0E0,0E0,0E0,0E0,0E0,0E0,0E0,0E0,0E0,0E0,0E0,0E0,0E0,0E0,0E0,0E0,0E0,0E0,0E0,0E0,0E0,0E0,0E0,0E0,0E0,0E0,0E0,0E0,0E0,0E0,0E0,0E0,0E0,0E0,0E0,0E0,0E0,0E0,0E0],"parents":[2147483647,0,0,1,1,2,2,3,3,4,4,5,5,6,6,7,7,8,8,9,9,10,10,11,11,12,12,13,13,14,14,15,15,16,16,18,18,19,19,20,20,21,21,22,22,23,23,24,24,25,25,26,26,27,27,28,28,29,29,30,30,31,31,32,32,33,33,34,34,35,35,36,36,37,37,38,38,39,39,40,40,41,41,42,42,43,43,44,44,45,45,47,47,49,49,50,50,51,51,52,52,53,53,54,54,55,55,56,56,57,57,58,58,59,59],"right_children":[2,4,6,8,10,12,14,16,18,20,22,24,26,28,30,32,34,-1,36,38,40,42,44,46,48,50,52,54,56,58,60,62,64,66,68,70,72,74,76,78,80,82,84,86,88,90,-1,92,-1,94,96,98,100,102,104,106,108,110,112,114,-1,-1,-1,-1,-1,-1,-1,-1,-1,-1,-1,-1,-1,-1,-1,-1,-1,-1,-1,-1,-1,-1,-1,-1,-1,-1,-1,-1,-1,-1,-1,-1,-1,-1,-1,-1,-1,-1,-1,-1,-1,-1,-1,-1,-1,-1,-1,-1,-1,-1,-1,-1,-1,-1,-1],"split_conditions":[8.89E2,6.4E1,2.2E1,2.6883E4,9.781729E-2,4.488421E-2,5.81E2,7.97E2,3E0,2.78E2,1.04E2,2.052E3,3.2511E4,6.61E2,6.4E2,1E0,8.1E2,-1.2112832E-1,9.781729E-2,8E0,7.37E2,6.5535E4,1.2E2,6.37E7,2.238E3,1.04E2,6E0,2.6883E4,2.3E2,2.6883E4,4.26E7,7.37E2,4E1,3.09E2,1.4135259E4,2.1E1,4E0,1.8E2,2.51E2,3.62E2,8.1E2,7.37E2,8E0,1E0,8E0,6.4E1,1.0958405E-1,4E7,-1.21350385E-1,3.3304E4,2.78E2,3.0999532E7,1.0725E4,8.7E2,2.22E2,1E0,2.72E2,6.37E7,2.8551E4,2.21E2,1.08595386E-1,-1.2101475E-1,-1.6274667E-1,8.995605E-2,-1.2730907E-1,-1.1384728E-1,-1.7309122E-1,-1.0330743E0,-1.5680803E-1,-1.7360743E-2,8.392934E-2,-1.5839034E-1,-1.2422762E-1,-1.13824666E-1,1.0961839E-1,-1.1794313E-1,1.0505259E-1,-8.760184E-3,-9.643647E-2,-1.9337305E-1,-3.78863E-1,-1.21166304E-1,-1.3584208E-1,-9.052355E-2,8.747589E-2,-1.0112335E-1,1.07282415E-1,-3.5444867E-2,-1.2107047E-1,-8.882912E-2,8.1190996E-2,-1.2821224E-1,8.86804E-2,1.0353011E-1,-3.4224397E-1,1.0256974E-1,-1.6310212E-1,-1.4064336E-1,-4.0692568E-2,1.1026322E-1,-1.2806322E-1,-1.4673613E-1,-1.2156465E-1,-1.8528834E-1,1.10417835E-1,-8.72793E-3,-1.4234744E-1,1.033619E-1,-1.2912174E-1,-1.2586562E-1,9.092009E-2,1.3454315E-1,-1.09939694E-1,-1.4514823E-1,-1.2410952E-1],"split_indices":[5,0,8,4,7,6,8,10,5,4,0,4,11,10,8,2,5,0,7,1,5,4,0,10,4,0,8,4,8,4,9,5,0,5,7,5,5,4,4,4,5,5,1,5,8,0,0,10,0,4,4,11,10,9,10,11,1,10,4,4,0,0,0,0,0,0,0,0,0,0,0,0,0,0,0,0,0,0,0,0,0,0,0,0,0,0,0,0,0,0,0,0,0,0,0,0,0,0,0,0,0,0,0,0,0,0,0,0,0,0,0,0,0,0,0],"split_type":[0,0,0,0,0,0,0,0,0,0,0,0,0,0,0,0,0,0,0,0,0,0,0,0,0,0,0,0,0,0,0,0,0,0,0,0,0,0,0,0,0,0,0,0,0,0,0,0,0,0,0,0,0,0,0,0,0,0,0,0,0,0,0,0,0,0,0,0,0,0,0,0,0,0,0,0,0,0,0,0,0,0,0,0,0,0,0,0,0,0,0,0,0,0,0,0,0,0,0,0,0,0,0,0,0,0,0,0,0,0,0,0,0,0,0],"sum_hessian":[2.9546038E5,1.0357653E5,1.9188386E5,9.460539E4,8.97114E3,1.1767725E5,7.420661E4,4.6096984E4,4.8508406E4,7.3083994E3,1.6627401E3,3.8935042E3,1.1378374E5,5.5548582E4,1.8658027E4,4.5991402E4,1.055845E2,1.7536613E4,3.0971795E4,7.152696E3,1.5570345E2,1.6022133E3,6.0526802E1,2.2171055E3,1.6763987E3,1.1298562E5,7.981283E2,1.8926512E4,3.662207E4,5.723799E2,1.8085648E4,4.535753E4,6.338683E2,4.854356E1,5.7040947E1,2.0974736E4,9.997059E3,7.0846943E3,6.800122E1,1.355797E2,2.0123755E1,1.5980562E3,4.1571364E0,2.1184555E1,3.9342247E1,1.4586726E3,7.5843304E2,1.0290332E1,1.6661083E3,1.0934708E5,3.638537E3,6.801777E2,1.17950645E2,1.8113293E4,8.132188E2,6.2984507E3,3.0323621E4,3.4140048E2,2.3097939E2,1.808091E4,4.7375927E0,4.495628E4,4.0125113E2,2.1749516E2,4.163731E2,1.5567718E1,3.297584E1,4.6580616E1,1.0460329E1,1.5856575E4,5.118161E3,4.983106E1,9.947228E3,4.615503E0,7.080079E3,2.9378033E1,3.8623188E1,5.1535763E1,8.404393E1,9.579691E0,1.0544064E1,1.1318473E3,4.6620886E2,1.5419536E0,2.6151829E0,4.2875166E0,1.6897038E1,1.0078317E1,2.926393E1,1.1387836E3,3.1988904E2,7.1321836E0,3.158148E0,1.0921351E5,1.3357176E2,2.3628484E3,1.2756886E3,5.976031E2,8.257459E1,5.256213E1,6.538852E1,3.6226886E2,1.7751023E4,7.439611E0,8.057792E2,1.4454451E3,4.8530054E3,2.913385E4,1.1897703E3,3.3711728E2,4.283203E0,1.0743474E2,1.2354465E2,6.1115295E2,1.7469758E4],"tree_param":{"num_deleted":"0","num_feature":"12","num_nodes":"115","size_leaf_vector":"1"}},{"base_weights":[1.6335586E-2,-7.742976E-1,4.4150415E-1,-8.9810437E-1,6.6009295E-1,9.129564E-1,-3.010479E-1,-1.1799505E0,-6.382357E-1,1.0345498E0,-1.1685927E0,-8.6323214E-1,9.5095265E-1,-9.8033667E-1,1.0356354E-1,-1.1894598E0,-5.087312E-1,-1.1871679E-1,-3.4080702E-1,1.0737275E0,-6.817789E-1,-1.2010041E0,-4.294727E-1,-1.2348858E0,-2.3182172E-1,-1.3107195E0,9.646428E-1,-1.1004013E0,1.0406832E0,-4.213599E-1,7.9870105E-1,-1.190086E0,1.1394417E-1,1.2142344E-1,-1.1019218E0,5.177494E-2,-1.2155387E0,1.0838326E0,8.116712E-2,-3.4572718E-1,-1.3826531E0,-1.2043439E0,1.956126E-2,3.4700215E-1,-1.1285049E-1,-1.3290185E0,-1.1851724E-1,1.0689964E0,-1.1840021E-1,-1.4412655E0,1.0221716E0,9.756029E-1,-1.6983767E0,-1.1323347E0,9.727219E-1,1.0773638E0,-1.504374E-1,7.2288406E-1,-1.2494853E0,1.0878508E0,-1.1221833E0,-1.186492E-1,-1.6022997E-1,-1.2647991E-1,1.0548861E-1,-1.55647E-2,7.553246E-2,-1.4965253E-1,-1.2139212E-1,-1.0935911E-1,1.0855656E-1,-1.1527498E-1,1.0356998E-1,-5.41444E-2,7.202505E-2,-3.153984E-2,-1.4199911E-1,-1.1873889E-1,-1.2886773E-1,-8.681345E-2,7.7990286E-2,-6.0421642E-2,1.0240831E-1,-1.2540583E-1,-1.5200399E-1,7.784337E-2,1.0827253E-1,-1.5764122E-1,-1.1190144E-1,1.1009761E-1,-7.25479E-2,-2.815263E-1,9.8271646E-2,-2.2467442E-1,-1.4719775E-1,-1.1750119E-1,-1.4268911E-2,1.24905825E-1,-1.2213453E-1,-1.0258915E-1,1.0840066E-1,-1.2877434E-1,1.0986978E-1,-1.4085808E-1,-1.206797E-1,1.10660195E-1,-1.319754E-1,-1.21137045E-1,3.2057147E-2],"categories":[],"categories_nodes":[],"categories_segments":[],"categories_sizes":[],"default_left":[0,0,0,0,0,0,0,0,0,0,0,0,0,0,0,0,0,0,0,0,0,0,0,0,0,0,0,0,0,0,0,0,0,0,0,0,0,0,0,0,0,0,0,0,0,0,0,0,0,0,0,0,0,0,0,0,0,0,0,0,0,0,0,0,0,0,0,0,0,0,0,0,0,0,0,0,0,0,0,0,0,0,0,0,0,0,0,0,0,0,0,0,0,0,0,0,0,0,0,0,0,0,0,0,0,0,0,0,0],"id":14,"left_children":[1,3,5,7,9,11,13,15,17,19,21,23,25,27,29,31,33,-1,35,37,39,41,43,45,47,49,51,53,55,57,59,61,-1,-1,63,65,67,69,71,73,75,77,79,81,-1,83,-1,85,-1,87,89,91,93,95,97,99,-1,101,103,105,107,-1,-1,-1,-1,-1,-1,-1,-1,-1,-1,-1,-1,-1,-1,-1,-1,-1,-1,-1,-1,-1,-1,-1,-1,-1,-1,-1,-1,-1,-1,-1,-1,-1,-1,-1,-1,-1,-1,-1,-1,-1,-1,-1,-1,-1,-1,-1,-1],"loss_changes":[9.237247E4,1.7066004E4,6.2558324E4,6.4783984E3,5.2299893E3,7.377414E3,1.9073732E4,2.702539E2,7.5143613E3,4.269502E2,3.0586426E1,5.370359E2,3.314664E3,6.2871797E3,1.5870509E4,6.2367188E1,6.0897894E2,0E0,1.025192E4,6.2072266E1,3.2983727E1,5.0913086E0,3.0840252E1,5.1689453E0,1.0536155E3,1.9769092E2,3.1062578E3,1.6199531E3,1.3728406E2,2.3482648E4,1.0394715E4,6.007422E1,0E0,0E0,1.5688477E2,3.0072856E3,2.3857422E0,2.4336426E1,7.603353E1,2.0702324E1,1.3736038E0,2.4255371E-1,3.6309505E0,1.8228071E1,0E0,5.107361E0,0E0,5.9158325E-1,0E0,2.4826416E1,5.581585E0,2.8594531E3,5.0865845E1,1.0169746E3,2.2675995E2,2.1134521E1,0E0,7.8637954E3,9.59375E1,7.3575E2,3.154851E2,0E0,0E0,0E0,0E0,0E0,0E0,0E0,0E0,0E0,0E0,0E0,0E0,0E0,0E0,0E0,0E0,0E0,0E0,0E0,0E0,0E0,0E0,0E0,0E0,0E0,0E0,0E0,0E0,0E0,0E0,0E0,0E0,0E0,0E0,0E0,0E0,0E0,0E0,0E0,0E0,0E0,0E0,0E0,0E0,0E0,0E0,0E0,0E0],"parents":[2147483647,0,0,1,1,2,2,3,3,4,4,5,5,6,6,7,7,8,8,9,9,10,10,11,11,12,12,13,13,14,14,15,15,16,16,18,18,19,19,20,20,21,21,22,22,23,23,24,24,25,25,26,26,27,27,28,28,29,29,30,30,31,31,34,34,35,35,36,36,37,37,38,38,39,39,40,40,41,41,42,42,43,43,45,45,47,47,49,49,50,50,51,51,52,52,53,53,54,54,55,55,57,57,58,58,59,59,60,60],"right_children":[2,4,6,8,10,12,14,16,18,20,22,24,26,28,30,32,34,-1,36,38,40,42,44,46,48,50,52,54,56,58,60,62,-1,-1,64,66,68,70,72,74,76,78,80,82,-1,84,-1,86,-1,88,90,92,94,96,98,100,-1,102,104,106,108,-1,-1,-1,-1,-1,-1,-1,-1,-1,-1,-1,-1,-1,-1,-1,-1,-1,-1,-1,-1,-1,-1,-1,-1,-1,-1,-1,-1,-1,-1,-1,-1,-1,-1,-1,-1,-1,-1,-1,-1,-1,-1,-1,-1,-1,-1,-1,-1],"split_conditions":[8.1E2,6.4E1,2.2E1,2.6883E4,9.781729E-2,2.6635086E-2,1.5E1,1E0,3E0,2.78E2,1.04E2,6.37E7,4E1,6.37E7,2.6883E4,7.25E2,1.4E1,-1.1871679E-1,9.781729E-2,8E0,8E0,6.5535E4,1.52E2,2.238E3,2.238E3,6.480189E3,1.68E2,4.072E3,5.12E2,3.62E2,6.4E2,7.37E2,1.1394417E-1,1.2142344E-1,5.2E2,2.1E1,4E0,1.8E2,2.51E2,7.2E1,4E0,7.37E2,8E0,8.695652E4,-1.1285049E-1,6.4E1,-1.1851724E-1,7.834728E7,-1.1840021E-1,1.2575E4,5.882353E2,0E0,3.9387E4,1E0,3.62E2,2.38E2,-1.504374E-1,1.36E2,3.26E2,2.72E2,5.2242062E5,-1.186492E-1,-1.6022997E-1,-1.2647991E-1,1.0548861E-1,-1.55647E-2,7.553246E-2,-1.4965253E-1,-1.2139212E-1,-1.0935911E-1,1.0855656E-1,-1.1527498E-1,1.0356998E-1,-5.41444E-2,7.202505E-2,-3.153984E-2,-1.4199911E-1,-1.1873889E-1,-1.2886773E-1,-8.681345E-2,7.7990286E-2,-6.0421642E-2,1.0240831E-1,-1.2540583E-1,-1.5200399E-1,7.784337E-2,1.0827253E-1,-1.5764122E-1,-1.1190144E-1,1.1009761E-1,-7.25479E-2,-2.815263E-1,9.8271646E-2,-2.2467442E-1,-1.4719775E-1,-1.1750119E-1,-1.4268911E-2,1.24905825E-1,-1.2213453E-1,-1.0258915E-1,1.0840066E-1,-1.2877434E-1,1.0986978E-1,-1.4085808E-1,-1.206797E-1,1.10660195E-1,-1.319754E-1,-1.21137045E-1,3.2057147E-2],"split_indices":[5,0,8,4,7,6,11,2,5,4,0,10,0,10,4,8,8,0,7,1,1,4,0,4,4,7,1,0,4,4,8,5,0,0,8,5,5,4,4,0,9,5,1,6,0,0,0,5,0,11,6,8,5,3,4,8,0,1,8,1,9,0,0,0,0,0,0,0,0,0,0,0,0,0,0,0,0,0,0,0,0,0,0,0,0,0,0,0,0,0,0,0,0,0,0,0,0,0,0,0,0,0,0,0,0,0,0,0,0],"split_type":[0,0,0,0,0,0,0,0,0,0,0,0,0,0,0,0,0,0,0,0,0,0,0,0,0,0,0,0,0,0,0,0,0,0,0,0,0,0,0,0,0,0,0,0,0,0,0,0,0,0,0,0,0,0,0,0,0,0,0,0,0,0,0,0,0,0,0,0,0,0,0,0,0,0,0,0,0,0,0,0,0,0,0,0,0,0,0,0,0,0,0,0,0,0,0,0,0,0,0,0,0,0,0,0,0,0,0,0,0],"sum_hessian":[2.7479144E5,9.609489E4,1.7869655E5,8.846E4,7.634888E3,1.0930053E5,6.9396016E4,4.2433887E4,4.6026117E4,6.337586E3,1.2973025E3,2.288733E3,1.07011805E5,2.5904457E4,4.349156E4,4.184035E4,5.935334E2,1.6173473E4,2.9852643E4,6.1965156E3,1.4107004E2,1.242205E3,5.509751E1,1.4401139E3,8.486192E2,6.4328784E2,1.06368516E5,2.4452256E4,1.4522026E3,2.4779818E4,1.8711742E4,4.1829594E4,1.0757775E1,1.5174165E2,4.4179175E2,2.0605691E4,9.24695E3,6.1339746E3,6.254113E1,9.636074E1,4.4709293E1,1.2388285E3,3.3764439E0,2.6341429E1,2.8756084E1,4.8881134E2,9.513025E2,3.585984E2,4.9002078E2,6.0955975E2,3.37281E1,1.05933164E5,4.3535114E2,2.4081766E4,3.7048972E2,1.4321385E3,2.00641E1,1.04041875E4,1.437563E4,1.6263969E4,2.447774E3,4.147189E4,3.5770273E2,4.1115576E2,3.0635992E1,1.59145205E4,4.691172E3,4.7637165E1,9.199313E3,4.3767467E0,6.1295977E3,2.7187893E1,3.5353237E1,8.182879E1,1.4531951E1,1.8306189E0,4.2878677E1,1.044012E3,1.9481662E2,1.4923557E0,1.8840883E0,1.0998065E1,1.5343363E1,3.564852E2,1.3232614E2,1.8782242E1,3.3981616E2,4.2671207E2,1.828477E2,3.2626923E1,1.1011765E0,1.9767181E2,1.0573549E5,1.24608894E2,3.1074225E2,2.3086023E4,9.9574194E2,3.2942972E2,4.1059998E1,4.0257425E0,1.4281128E3,1.6380558E3,8.766132E3,3.034457E3,1.1341174E4,1.6138815E4,1.2515359E2,2.3054194E3,1.4235442E2],"tree_param":{"num_deleted":"0","num_feature":"12","num_nodes":"109","size_leaf_vector":"1"}},{"base_weights":[1.596847E-2,-7.412298E-1,4.356253E-1,-8.627545E-1,6.054548E-1,8.9834005E-1,-2.891324E-1,-1.1669066E0,-5.9321016E-1,1.0186365E0,-1.1664547E0,-4.8804292E-1,9.4826204E-1,7.804635E-3,-1.1733344E0,-1.1582063E0,-3.496611E0,-1.166203E-1,-3.0289483E-1,1.0657172E0,-8.5013455E-1,-1.1956046E0,-4.0707147E-1,-1.0147055E-2,-1.1682186E0,9.6470135E-1,-1.0729035E0,-1.0795943E0,5.570351E-1,-6.902949E-1,-1.1889367E0,-1.1676732E0,-4.9550974E-1,-1.4109181E-1,-4.3905244E0,6.0570586E-2,-1.19098E0,1.0753133E0,8.092166E-2,-5.428346E-1,-2.5774531E0,